1683 100
unk -0.32514417 0.3182706 0.15908125 0.11308715 0.18160446 -0.70796984 0.31639782 0.98853356 -0.28443924 -0.39982557 0.023120493 -0.5209866 -0.25353125 0.1223661 0.26191252 -0.09247612 0.11953438 -0.16218016 0.04792141 -0.59512573 0.34162247 0.27101994 0.24340093 -0.3479914 0.062285304 -0.10203567 -0.36265734 -0.31169707 -0.23617017 -0.058611322 0.46094707 0.07681778 0.33958176 -0.17509693 -0.22515376 0.4219696 -0.012330359 -0.29411268 -0.17437616 -0.82753295 -0.0004990949 -0.15339366 -0.31898394 -0.18276533 0.26350865 -0.1208256 -0.30973452 0.06377314 0.25812152 0.1316931 0.08024696 -0.17284884 0.06897766 -0.03088506 0.0073646996 0.088562556 0.26945686 0.04117817 -0.31923357 0.15092656 -0.077310115 0.0052031246 -0.106175974 -0.1999078 -0.43741584 0.44175386 -0.18082255 0.26989177 -0.53116435 0.5065929 -0.404495 0.19681129 0.1137744 -0.048552148 0.44256157 0.16606697 0.08099778 -0.10381815 -0.59913117 0.05729811 -0.103143394 0.21678482 -0.37734812 0.7866824 0.070751436 -0.004712919 0.28527153 0.3310918 0.30084628 -0.094341114 0.6020672 0.35524955 0.06032702 0.014108747 0.77384406 0.37315574 0.00121629 -0.58630407 0.20783968 -0.017871512
, -0.3396228 0.28329328 0.21000645 0.13390054 0.204591 -0.60880846 0.32083064 0.9388349 -0.20693536 -0.34995517 -0.005000851 -0.5172065 -0.13080785 0.15865314 0.22102179 -0.11752603 0.13551712 -0.19432871 0.041843258 -0.5890986 0.30698612 0.21600033 0.2698743 -0.36464432 0.11713525 -0.06427067 -0.3395253 -0.29795963 -0.26214707 -0.0061789313 0.43354338 0.059893716 0.29478183 -0.27140695 -0.18351506 0.42191842 -0.032614883 -0.2895954 -0.2178428 -0.70081043 -0.004621707 -0.2167788 -0.292073 -0.14822416 0.3090824 -0.09266917 -0.3009115 -0.008630132 0.3040203 0.13558091 0.11984002 -0.2160551 0.051759448 -0.020257812 -0.0672167 0.17190759 0.23964374 0.027898986 -0.36716148 0.15832826 -0.029097412 -0.018974151 -0.11738072 -0.12537217 -0.42799056 0.41954163 -0.13671312 0.344863 -0.49568152 0.5655771 -0.3629225 0.2118325 0.18295923 0.027638247 0.42958885 0.11254161 0.07822995 -0.123458296 -0.50416493 0.10823113 -0.15389624 0.15046522 -0.4258433 0.69803727 0.019375628 -0.053219024 0.2675579 0.33899048 0.26165837 -0.1092566 0.56819636 0.29850712 0.07239868 -0.046839066 0.69663405 0.39608526 0.05734464 -0.49408093 0.115146615 -0.03266343
好吃 -0.34485403 0.23765247 0.18155693 0.13876255 0.15337569 -0.53103983 0.2636052 0.8591069 -0.20564578 -0.3132021 -0.11426525 -0.44742918 -0.11483744 0.20395653 0.22085524 -0.14263672 0.1167064 -0.28646544 0.03980899 -0.6311508 0.31615078 0.22123168 0.29722658 -0.32396543 0.16969465 -0.036573842 -0.31928223 -0.27677232 -0.30136448 0.05367596 0.4276435 0.052868724 0.26699132 -0.34080732 -0.13398257 0.40173715 -0.11565955 -0.2760317 -0.28543743 -0.66935045 -0.052906476 -0.28689846 -0.2701023 -0.039585672 0.38422626 -0.048918594 -0.3675552 -0.116844945 0.3435259 0.16827917 0.13321896 -0.18752962 0.0014992114 -0.06397411 -0.095261365 0.22652453 0.23532158 -0.043379363 -0.42797992 0.1465123 0.018608974 -0.024359593 -0.1521721 -0.012987498 -0.41726446 0.4167038 -0.06974751 0.4607074 -0.44156015 0.58764565 -0.31382844 0.20102331 0.18580969 0.025519311 0.4619488 0.13265972 0.12977035 -0.09400083 -0.41425252 0.14680633 -0.12441934 0.029356917 -0.4472317 0.6494051 0.009113787 -0.09952169 0.23756076 0.41214064 0.24613409 -0.11472357 0.55738574 0.274899 0.12902653 -0.09506772 0.59801155 0.41315752 0.12411964 -0.45862657 0.09330743 -0.060813237
味道 -0.37072963 0.26146564 0.19966069 0.15473263 0.1618771 -0.5458886 0.2824916 0.8878618 -0.19291289 -0.32357904 -0.089242846 -0.45327666 -0.11787778 0.19854912 0.21839727 -0.15034512 0.12516576 -0.31236774 0.035513896 -0.62373734 0.3280718 0.23031662 0.3257161 -0.30617833 0.14146873 -0.038560897 -0.33855423 -0.2781669 -0.30111602 0.037954375 0.42992547 0.058858704 0.27390257 -0.35440457 -0.124054566 0.42240342 -0.09764076 -0.30502135 -0.31584352 -0.6727425 -0.045600813 -0.29808336 -0.26472422 -0.057064686 0.3942426 -0.04660204 -0.37435576 -0.12595262 0.34653255 0.17766473 0.14966564 -0.18710467 -0.00886761 -0.06829157 -0.10571216 0.22492489 0.25078717 -0.026548298 -0.42470345 0.14078894 0.012042955 -0.0053008627 -0.16128257 -0.027184445 -0.4264918 0.3969083 -0.087184265 0.48205498 -0.44749838 0.5860775 -0.3307511 0.19592686 0.20416474 0.04128819 0.46591583 0.113608085 0.10859755 -0.0956393 -0.43838117 0.16224279 -0.14398861 0.050323382 -0.44578913 0.66650754 -0.005631319 -0.12240461 0.2637659 0.43885332 0.23087549 -0.13096793 0.56156653 0.2722863 0.113497116 -0.10454204 0.63397783 0.41804105 0.13158874 -0.47889414 0.076844804 -0.063498095
送餐 -0.38783807 0.24409488 0.19332242 0.117589265 0.1580195 -0.5017505 0.28395218 0.92292297 -0.18597412 -0.24140392 -0.094949454 -0.5068857 -0.10527115 0.18690233 0.16563585 -0.2118074 0.1265557 -0.28495252 0.09659123 -0.6419388 0.34295133 0.1818772 0.36363748 -0.35561904 0.1549558 -0.039116506 -0.29497442 -0.33425918 -0.29670674 0.003490022 0.4158382 0.09488034 0.30792677 -0.44021243 -0.095942475 0.35892242 -0.13376969 -0.344456 -0.36361596 -0.6355629 -0.010598245 -0.32549325 -0.24776293 -0.09310892 0.39666438 -0.093198895 -0.35951328 -0.08057418 0.3727851 0.12370999 0.11946428 -0.13131934 0.083667435 0.0013260862 -0.11267923 0.16213533 0.23178822 -0.065131776 -0.4402227 0.13585567 0.0754492 -0.025834166 -0.12275282 -0.013197151 -0.41264278 0.38664293 -0.047173593 0.53253084 -0.5078808 0.6475941 -0.3061971 0.25556818 0.21056788 0.039335523 0.5035199 0.1091805 0.17242856 -0.073020756 -0.4375282 0.19161214 -0.22571994 0.0005879348 -0.4830695 0.6696373 -0.041134637 -0.12314021 0.28612593 0.43809217 0.1930853 -0.06883389 0.61354923 0.24003744 0.10887325 -0.130752 0.62620944 0.4536773 0.13700859 -0.40354148 0.041822452 -0.015388446
吃 -0.37740883 0.30874765 0.18481928 0.11477448 0.180393 -0.67515343 0.31096283 0.9627555 -0.25727707 -0.4002646 -0.06257044 -0.50224406 -0.2203387 0.15002862 0.26636583 -0.11398292 0.10225775 -0.25106707 0.046379108 -0.64259523 0.33214316 0.2572158 0.28096128 -0.32980496 0.10631947 -0.058350943 -0.3838941 -0.33398277 -0.28402257 0.02416792 0.5051635 0.067710795 0.30293995 -0.26204404 -0.18292029 0.45582065 -0.075346544 -0.27260658 -0.23413505 -0.81376207 -0.008275542 -0.24698892 -0.32896242 -0.112945765 0.34306386 -0.10993405 -0.36388505 -0.032492176 0.32475996 0.15400258 0.12691122 -0.22092815 0.04252007 -0.03603626 -0.06505153 0.19425683 0.28092006 -0.0021671865 -0.39744908 0.14044155 -0.024343085 -0.010426461 -0.12834522 -0.113825455 -0.4487105 0.44773474 -0.1297241 0.37701264 -0.5010846 0.5636762 -0.40393877 0.19621533 0.1601222 0.0064545018 0.4731204 0.19065852 0.05730167 -0.104423806 -0.52775 0.11737072 -0.093925856 0.125605 -0.4123718 0.74694616 0.04641619 -0.053058214 0.26614955 0.42212018 0.29191944 -0.1349444 0.6457056 0.35821688 0.075645864 -0.04437213 0.73360825 0.4013834 0.06252486 -0.57882196 0.16656476 -0.05520995
送 -0.3522108 0.29269454 0.16310993 0.09337877 0.19539279 -0.59263724 0.30430704 0.9628861 -0.22985664 -0.30464968 -0.01690921 -0.5378072 -0.16431315 0.14485574 0.19576304 -0.18321197 0.162068 -0.20685539 0.0828189 -0.63283145 0.3288429 0.21664403 0.33238286 -0.3716272 0.11636965 -0.079202875 -0.32700336 -0.3885659 -0.24616149 -0.02324213 0.45617187 0.10840763 0.33294883 -0.31468886 -0.20248103 0.39647046 -0.12413373 -0.3760626 -0.30495936 -0.76301765 0.024582125 -0.24515064 -0.22968334 -0.18708305 0.34622997 -0.11414171 -0.3447027 -0.020506768 0.28718683 0.09755585 0.101140045 -0.18749669 0.05329462 0.035296973 -0.095922865 0.100483775 0.25519395 -0.02900215 -0.40875736 0.11189802 0.022002988 -0.018722976 -0.08294546 -0.080869876 -0.44410968 0.4342384 -0.12331006 0.39906767 -0.5806214 0.59337986 -0.35538757 0.26053566 0.16596805 0.023041988 0.5253272 0.1141281 0.13606033 -0.07232019 -0.54896504 0.17489076 -0.15734941 0.0927 -0.45987105 0.7544049 0.019744085 -0.043250524 0.31163004 0.37842008 0.24419059 -0.07710027 0.6249281 0.2964456 0.058531824 -0.07548361 0.7118439 0.43952224 0.1001114 -0.508815 0.10584271 0.014387981
不错 -0.3060753 0.20481844 0.2117356 0.17011827 0.11378117 -0.4788893 0.2792849 0.8121075 -0.18586555 -0.29193157 -0.11286 -0.43727493 -0.08708124 0.19281241 0.16901788 -0.14832169 0.10870991 -0.29575345 0.029928736 -0.6282015 0.3293375 0.23763512 0.30763015 -0.32251894 0.15174823 -0.019862926 -0.3168092 -0.25933275 -0.29827914 0.04412995 0.36616555 0.060135685 0.27463472 -0.3684938 -0.11628254 0.371992 -0.11879482 -0.29226086 -0.30983108 -0.6279048 -0.039344795 -0.30594918 -0.25229418 -0.03672065 0.38636795 -0.054430805 -0.38599706 -0.13524193 0.34822133 0.16809326 0.12575983 -0.18254001 0.01961477 -0.07220611 -0.098469496 0.2254803 0.2145704 -0.05224043 -0.4286437 0.15479521 0.034260925 -0.022585997 -0.18851908 0.008029681 -0.41552424 0.3959017 -0.09528185 0.49101377 -0.42688182 0.57051635 -0.2991754 0.20460315 0.21359964 0.02115301 0.4323834 0.10340744 0.15937139 -0.11767576 -0.39431915 0.14325844 -0.15776089 0.022027342 -0.46470332 0.6202267 -0.022092363 -0.124129325 0.2448061 0.43194935 0.21841222 -0.1040669 0.55399567 0.23221833 0.10469988 -0.083852425 0.57129663 0.4094721 0.111969456 -0.41594672 0.061225653 -0.07345724
小时 -0.38831866 0.39563483 0.19707017 0.15919718 0.24834551 -0.5351149 0.34050164 0.91094095 -0.24923679 -0.24120589 0.04849373 -0.5350849 -0.13561793 0.06881711 0.20865752 -0.14625704 0.1397816 -0.13982865 0.014579615 -0.5562825 0.2588698 0.22855762 0.2925117 -0.3632984 0.12361867 -0.041123223 -0.35047245 -0.4181099 -0.19380273 -0.052104816 0.48026085 0.063079216 0.33991432 -0.24495494 -0.20535932 0.35616016 -0.09406623 -0.29895782 -0.23845254 -0.76542556 -0.002414016 -0.16261604 -0.24985263 -0.21228826 0.25493196 -0.23066099 -0.26299998 0.08053755 0.24274056 0.03324639 0.095044635 -0.15160108 0.07612384 0.03274888 -0.086487666 0.03503523 0.20010269 0.007743085 -0.3223332 0.097685255 0.0060391333 -0.02193432 0.03765322 -0.09713781 -0.49167377 0.36086795 -0.13215324 0.4016062 -0.59675664 0.5809008 -0.380892 0.25860646 0.16292016 0.043910883 0.43171713 0.110737346 0.07335183 -0.09806514 -0.5895062 0.124585725 -0.18110564 0.09144152 -0.34488878 0.71749943 0.030493516 0.034613166 0.2970443 0.27307567 0.24005733 -0.07365171 0.60143185 0.28990984 0.047159854 -0.06372554 0.7628853 0.4058158 0.06135787 -0.43716717 0.14312547 0.0013602028
没有 -0.38822484 0.31817186 0.17948464 0.1365529 0.19939882 -0.7025278 0.30721596 0.9865166 -0.27420375 -0.39454788 -0.04853728 -0.52620673 -0.23091966 0.15482622 0.2663081 -0.10032971 0.14030898 -0.24975881 0.07207883 -0.6773012 0.354922 0.28043464 0.28829074 -0.3635073 0.11759618 -0.0713145 -0.41241705 -0.34070462 -0.28298992 -0.003332385 0.5209307 0.10035469 0.34969345 -0.24574782 -0.19475673 0.44591764 -0.09659403 -0.29881203 -0.2531051 -0.83463234 -0.0044653337 -0.22948967 -0.32257038 -0.12991317 0.3462849 -0.11181569 -0.3672261 -0.0120957745 0.3382168 0.15988493 0.13100646 -0.2007903 0.024839332 -0.019074168 -0.06198318 0.16259046 0.25968236 -0.002223118 -0.40152648 0.1620202 -0.036467444 0.021322902 -0.13017936 -0.10302278 -0.4739549 0.45591754 -0.1484252 0.36518344 -0.51936704 0.592456 -0.4243535 0.2221857 0.14404601 -0.02267301 0.50754386 0.17668954 0.09194294 -0.11748523 -0.55283093 0.10803369 -0.11043741 0.13603392 -0.44218984 0.8081389 0.052943602 -0.04003785 0.28673726 0.43556353 0.31894112 -0.12537847 0.6532004 0.36818945 0.08156058 -0.025559885 0.7637653 0.40239266 0.06471359 -0.58084494 0.17691663 -0.033106286
没 -0.36432993 0.33283868 0.19884865 0.09478367 0.20989245 -0.6842482 0.32306978 1.0024098 -0.26158234 -0.3726811 -0.009052767 -0.5509649 -0.2066785 0.11818026 0.2581959 -0.12880985 0.13383171 -0.2245842 0.073489115 -0.6536535 0.32874727 0.24653901 0.28754094 -0.3826553 0.09362471 -0.07546381 -0.3789386 -0.39092052 -0.25568086 -0.0035002632 0.49620968 0.09122588 0.35335496 -0.24458359 -0.19567256 0.4328558 -0.0938456 -0.32487315 -0.26158342 -0.830062 0.0012986904 -0.22003905 -0.30424356 -0.15588103 0.32234728 -0.16434224 -0.33882108 0.018331766 0.30783215 0.1241632 0.11337567 -0.19889502 0.042471983 0.0033399072 -0.0684041 0.14033715 0.25042775 0.013396151 -0.38975102 0.15052357 -0.02726907 0.009744219 -0.11050823 -0.11415402 -0.48342913 0.44962487 -0.16818987 0.3532314 -0.556061 0.58079225 -0.40566137 0.24405642 0.14773351 0.012553868 0.5167271 0.17538294 0.0922181 -0.118223116 -0.5802586 0.12895681 -0.11692104 0.15184338 -0.4272806 0.8078591 0.03818993 -0.0038182198 0.2909485 0.4065427 0.3198997 -0.11321853 0.6731498 0.3527104 0.06171455 -0.023460815 0.77252424 0.42121312 0.06589034 -0.5800893 0.16549625 -0.041404527
点 -0.33927187 0.37743205 0.18455827 0.08248852 0.26403677 -0.6966032 0.32873866 1.0098273 -0.29734263 -0.32641062 0.006145677 -0.566856 -0.19546644 0.041942094 0.23385942 -0.1757985 0.12827499 -0.17324707 0.06727582 -0.61983556 0.30420196 0.23633656 0.25883532 -0.41381758 0.077939026 -0.10228666 -0.34103534 -0.39207572 -0.22966418 -0.0047472073 0.51575285 0.06330512 0.34505165 -0.27680817 -0.2467948 0.43644887 -0.076801814 -0.34636086 -0.2901348 -0.8686037 -0.013927829 -0.17856202 -0.2732479 -0.21754254 0.30306226 -0.20702372 -0.2974369 0.048909653 0.28451723 0.07597066 0.13515149 -0.24031681 0.06353435 0.0271612 -0.1237069 0.09240562 0.19841085 0.011753379 -0.37958068 0.13426113 0.008665236 0.03501995 -0.062726885 -0.15532787 -0.5009502 0.41463667 -0.14129075 0.35018173 -0.58530056 0.57866156 -0.45117104 0.28676242 0.121074714 0.051123213 0.50643456 0.18133071 0.06785326 -0.05576375 -0.6289447 0.08481515 -0.12424814 0.18192269 -0.4684368 0.7689996 0.04808364 0.046451837 0.28916734 0.32658172 0.3370551 -0.07410514 0.68782634 0.3421639 -0.02357811 -0.04359197 0.8036835 0.4027661 0.028941328 -0.5740369 0.1637007 -0.034181587
送到 -0.38372737 0.39791432 0.19857831 0.0844657 0.27865776 -0.6790533 0.36508158 1.0836927 -0.28182656 -0.30618232 0.009685617 -0.6406641 -0.21083866 0.039571926 0.2102504 -0.20498209 0.17129207 -0.152644 0.0913112 -0.65113956 0.30821815 0.24460602 0.27796468 -0.41109478 0.10812946 -0.07450499 -0.35722378 -0.4474207 -0.24191459 -0.0070899893 0.5252171 0.09569203 0.38236213 -0.32140306 -0.24518365 0.41542202 -0.102100685 -0.4056357 -0.30989432 -0.8736051 -0.0013222585 -0.17856364 -0.2715168 -0.2562678 0.3123444 -0.26278016 -0.2992827 0.064084955 0.28681275 0.05482374 0.14048122 -0.2385182 0.0683616 0.05495575 -0.11353888 0.060174417 0.2146565 5.754244e-05 -0.39375257 0.14210619 0.020281948 0.009952532 -0.04111013 -0.13409154 -0.52316767 0.4144203 -0.13685879 0.396097 -0.64753824 0.63896245 -0.43529123 0.3107857 0.1433621 0.024428478 0.55472916 0.17078723 0.11252404 -0.08139044 -0.6653194 0.12795465 -0.17712684 0.16446 -0.4711955 0.83205974 0.019408826 0.048530463 0.33646217 0.35398147 0.3107868 -0.08436719 0.7241099 0.34375796 0.008230515 -0.061044328 0.8590121 0.4480544 0.07107548 -0.5587823 0.16992617 0.0078062676
… -0.5472079 0.5263315 -0.0063585285 0.12407723 0.08549729 -0.68039834 0.044073436 0.53512114 -0.38481686 -0.30107808 -0.2541264 -0.25558996 -0.51763874 0.0883094 0.47958782 0.12137288 0.32590795 -0.06786034 0.016175194 -0.76459706 0.42139795 0.3078167 0.4269911 -0.045348052 0.25337905 0.21991986 -0.6379042 -0.43791702 -0.21904072 0.21960692 0.6715168 0.22887732 0.47862664 -0.32466334 0.06662526 0.19546892 -0.41639298 -0.06679506 -0.23320316 -0.74113154 -0.045803286 -0.27787474 -0.2644886 0.10909188 0.28535986 -0.2578222 -0.42885107 -0.10441077 0.48716778 0.10403999 0.111234866 -0.05680822 -0.14229916 0.09951637 -0.1174266 0.23707272 0.38677245 -0.0652964 -0.3918242 0.29336223 0.12805448 0.09925173 -0.030063491 0.2387602 -0.22045021 0.47438934 0.12562655 0.5176653 -0.3093248 0.549522 -0.3933176 0.027963236 -0.14642277 -0.012038988 0.64527804 0.446183 0.048675697 0.12864095 -0.27727473 0.042108197 0.0024193497 -0.17079768 -0.15305822 0.7852606 0.12603696 0.089493476 0.458843 0.5548708 0.26667455 -0.3730949 0.7740647 0.47427136 0.15494029 -0.12580389 0.4974859 0.21330826 0.32418555 -0.5385058 0.00962687 0.23231183
说 -0.36788872 0.35291687 0.18442959 0.07265054 0.23594491 -0.69654804 0.34155434 1.0509135 -0.25163892 -0.36344427 0.0043758783 -0.59673595 -0.23312339 0.09105082 0.24384132 -0.15347986 0.1439375 -0.2233564 0.09480417 -0.64602125 0.3565978 0.26255944 0.29748693 -0.42062187 0.08343134 -0.09997969 -0.36170852 -0.42188266 -0.24464877 -0.04157216 0.49138385 0.089710586 0.36284855 -0.27602676 -0.23086444 0.42136103 -0.07531242 -0.35466453 -0.2711831 -0.84184664 0.034174673 -0.22103146 -0.26877746 -0.19826175 0.3318424 -0.15626709 -0.34307215 0.045154057 0.30826455 0.11644093 0.117631495 -0.17240526 0.08634419 0.0021433902 -0.07853837 0.096139565 0.2879536 0.028807525 -0.3957562 0.14183 -0.02411529 0.010406241 -0.09821836 -0.13896284 -0.47488868 0.45136184 -0.16740438 0.3533443 -0.61026305 0.597738 -0.4295612 0.24051693 0.16008407 0.012256247 0.53046316 0.13696823 0.12639157 -0.10304144 -0.6270507 0.13061504 -0.1608325 0.16731542 -0.45138285 0.8233544 0.0618082 0.008322965 0.31416976 0.3987884 0.30916548 -0.09901023 0.69290984 0.35335025 0.054329623 -0.031480327 0.8182103 0.44747192 0.04791399 -0.57462245 0.15744188 -0.008744791
速度 -0.37883666 0.22756763 0.1960834 0.1405476 0.1254097 -0.47368217 0.2542638 0.8634359 -0.17506449 -0.19692394 -0.115056545 -0.49798983 -0.0787009 0.19456625 0.14868669 -0.20700873 0.11297143 -0.28861603 0.092253186 -0.603879 0.32672825 0.20612739 0.33690646 -0.34672076 0.15180343 -0.033565216 -0.28654703 -0.28882027 -0.28036198 0.0032010365 0.37753162 0.06826152 0.298175 -0.39838195 -0.111706585 0.36700505 -0.10754629 -0.35703534 -0.3695703 -0.56449693 -0.0012385582 -0.3416777 -0.23055795 -0.0772052 0.38315383 -0.051187273 -0.37311783 -0.12706447 0.36199474 0.12410369 0.11928699 -0.13705091 0.07583568 0.011523449 -0.12441136 0.19628625 0.2665577 -0.051743478 -0.42393848 0.14181122 0.07244666 -0.023379758 -0.15152097 0.0035973797 -0.37779948 0.35531932 -0.04530202 0.5291596 -0.47040817 0.6252179 -0.29320192 0.23003162 0.22043124 0.03259108 0.4905562 0.10171937 0.17505689 -0.079588965 -0.40581262 0.19731462 -0.21873002 -0.0145241115 -0.4784754 0.639073 -0.046036933 -0.11879484 0.24179547 0.4152068 0.20364657 -0.050230235 0.563071 0.23019047 0.094727635 -0.14539778 0.56950396 0.45854053 0.16498628 -0.35901192 0.044796642 -0.016691392
快 -0.31014565 0.17525828 0.18762454 0.11301642 0.13108858 -0.4093532 0.25793847 0.8217962 -0.14590874 -0.20510003 -0.094984524 -0.49446565 -0.033036187 0.1699525 0.11431268 -0.1930037 0.10254742 -0.29733914 0.0788119 -0.59493613 0.3292503 0.19083631 0.31968254 -0.32961252 0.16905446 -0.0150548415 -0.22924992 -0.3343936 -0.26685822 0.0080331415 0.3538244 0.057301164 0.28702024 -0.41767517 -0.09711485 0.35149068 -0.099945694 -0.32946047 -0.3436133 -0.58068854 -0.033465125 -0.30684838 -0.18644808 -0.085552536 0.34156966 -0.07212675 -0.34995344 -0.0986922 0.33256003 0.13216989 0.12074569 -0.15225108 0.041627396 0.014432591 -0.09428324 0.17679647 0.22517383 -0.063831784 -0.45849115 0.12364933 0.08164033 -0.012424802 -0.13101454 0.023885323 -0.39132866 0.349182 -0.077649675 0.49376768 -0.44854772 0.57547915 -0.23800689 0.24860646 0.2119102 0.03853425 0.4496908 0.029999059 0.20369625 -0.113535605 -0.36815482 0.18642358 -0.1911152 -0.010059939 -0.47956735 0.5741513 -0.06183988 -0.10683736 0.20679384 0.3792858 0.16519314 -0.057925403 0.5542367 0.2170364 0.12374497 -0.0701076 0.5546219 0.4464379 0.09506687 -0.35490194 6.708006e-05 -0.03705475
外卖 -0.36711225 0.28779125 0.1938407 0.05752973 0.19679105 -0.6641374 0.32796398 1.0407805 -0.22622144 -0.34631217 -0.06019706 -0.59241444 -0.14854968 0.15917754 0.24755824 -0.21735302 0.103355594 -0.3124979 0.13022053 -0.6741799 0.3992556 0.22930187 0.32359827 -0.44416773 0.1263107 -0.10710543 -0.32163396 -0.4170915 -0.30761203 -0.006834132 0.47628513 0.09464251 0.31619617 -0.35463253 -0.16078725 0.45454293 -0.12845261 -0.35264117 -0.31198525 -0.8261003 0.026054634 -0.30721095 -0.26579547 -0.15172541 0.36935207 -0.11565667 -0.3852766 -0.036961418 0.35879612 0.14640763 0.15309569 -0.15090297 0.104823895 -0.02549354 -0.038900778 0.1649718 0.30388418 0.0020960954 -0.46667492 0.15011963 -0.0032356526 -0.0058052554 -0.1579571 -0.107895926 -0.45550656 0.44074747 -0.112253234 0.43217918 -0.5713596 0.6196947 -0.37839824 0.21571088 0.19049567 0.055078987 0.55498505 0.14345083 0.17081177 -0.09144419 -0.553439 0.19872156 -0.16918594 0.12932609 -0.49278522 0.8023033 0.024777213 -0.047168635 0.29171568 0.4581752 0.30167842 -0.058337834 0.7104801 0.33026883 0.08936772 -0.088130906 0.7618631 0.49895954 0.07011093 -0.5393685 0.11835095 -0.06479504
太 -0.3670117 0.27390537 0.17504944 0.1251096 0.19565016 -0.65133744 0.3001805 0.9627272 -0.24260542 -0.36757243 -0.085757285 -0.5136642 -0.16876414 0.19183333 0.2569882 -0.13511531 0.12699598 -0.26400635 0.08815729 -0.64683974 0.36851677 0.23793343 0.30000743 -0.36812627 0.13682087 -0.062475234 -0.37969652 -0.3241964 -0.28123122 0.017925214 0.50445867 0.08875522 0.30572337 -0.30404508 -0.15892817 0.4310243 -0.10907924 -0.29689968 -0.2722152 -0.7983924 -0.022766722 -0.27873442 -0.2737596 -0.09798895 0.35330772 -0.09911922 -0.38573268 -0.067556456 0.3655799 0.15030496 0.12333746 -0.21004069 0.034629263 -0.033502106 -0.07067044 0.217791 0.26004013 -0.0075970497 -0.4185999 0.15921563 0.0016653916 0.011439942 -0.13840207 -0.064572915 -0.46052516 0.45548883 -0.099283755 0.4321619 -0.5029487 0.61576235 -0.3697849 0.20064011 0.18478487 0.026595442 0.518922 0.15708789 0.096013635 -0.089537784 -0.5205458 0.1263614 -0.13803914 0.097676724 -0.46460682 0.75967014 0.045557395 -0.060778964 0.2780876 0.4415203 0.28083932 -0.13174641 0.6611301 0.31932208 0.097655274 -0.04905088 0.6968999 0.42622837 0.09248562 -0.5405351 0.13084127 -0.045194708
难吃 -0.3648312 0.29524973 0.18012501 0.13682061 0.17298226 -0.62262076 0.29432252 0.928855 -0.2289809 -0.37293905 -0.08492674 -0.49297553 -0.15220557 0.19290543 0.26587206 -0.12142002 0.13724278 -0.27127612 0.05376495 -0.6633498 0.35610685 0.25440753 0.28044805 -0.35232523 0.12050915 -0.03926874 -0.3828198 -0.3319262 -0.28501466 0.04297031 0.47973144 0.0778158 0.30361453 -0.29463604 -0.17347807 0.44686088 -0.1176147 -0.29166353 -0.27271366 -0.7921003 -0.030033123 -0.23982878 -0.28801644 -0.070777476 0.35677198 -0.09094739 -0.3860611 -0.09179139 0.34785065 0.15591413 0.11146053 -0.22250104 0.00674047 -0.048623927 -0.050351996 0.22555012 0.27516088 -0.0012096948 -0.405407 0.15688226 -0.004758034 -0.027040252 -0.14420576 -0.06940762 -0.4457258 0.45298955 -0.12004856 0.41202962 -0.49396694 0.5916946 -0.38206196 0.19699436 0.16197503 0.0003031792 0.47960865 0.16209278 0.10176456 -0.08962462 -0.49663332 0.11987601 -0.1316992 0.095880605 -0.44723326 0.7414622 0.044277333 -0.06722701 0.26184696 0.42287406 0.27505612 -0.15026957 0.6279605 0.32834074 0.09092546 -0.03936371 0.6627382 0.38759243 0.07814307 -0.52216005 0.13732146 -0.0327299
菜 -0.36874723 0.29518276 0.19511728 0.15970132 0.18618011 -0.60868955 0.29782182 0.9221252 -0.22154354 -0.3554129 -0.07321816 -0.47934285 -0.16128787 0.18525982 0.24267605 -0.13601248 0.11607493 -0.26238924 0.042515084 -0.6471168 0.3313236 0.2590966 0.28251946 -0.3277963 0.13786632 -0.054883696 -0.37820643 -0.32804263 -0.30621234 0.021912873 0.47176155 0.073792085 0.30139482 -0.29785487 -0.16201726 0.43467245 -0.11491063 -0.27943215 -0.2763124 -0.7709706 -0.034873925 -0.26402092 -0.30805218 -0.08064049 0.36501354 -0.10543233 -0.37188786 -0.08478773 0.34099892 0.1647455 0.14363088 -0.21625568 0.009074088 -0.047504436 -0.09263851 0.2164752 0.24700415 -0.029226992 -0.4291896 0.14504722 -0.002493719 0.0025821992 -0.138882 -0.06526647 -0.46442747 0.44030717 -0.11256758 0.42318344 -0.47392103 0.5946719 -0.37064007 0.20474306 0.1674459 0.008184069 0.49082634 0.16533226 0.09321628 -0.09887088 -0.5013319 0.13848935 -0.13168293 0.087887794 -0.44306856 0.7197445 0.016952109 -0.050203647 0.2779522 0.42847952 0.273448 -0.122544624 0.6098471 0.31474414 0.097238995 -0.05696632 0.68268317 0.4086246 0.099456996 -0.5244403 0.11187241 -0.056718864
太慢 -0.30475435 0.26786667 0.17453316 0.14810644 0.14287125 -0.41842663 0.25632358 0.7532951 -0.18074411 -0.19282813 -0.027785275 -0.421677 -0.09076752 0.11199207 0.14085615 -0.14910734 0.13417149 -0.19266646 0.034034792 -0.50993985 0.24478781 0.15605171 0.24306709 -0.27433187 0.12778631 -0.011914407 -0.29066786 -0.30982366 -0.20678665 0.0074860165 0.37279224 0.060591202 0.28694165 -0.3116347 -0.11183429 0.28884777 -0.091141775 -0.27588612 -0.2608314 -0.57429844 -0.032096054 -0.20907536 -0.19787572 -0.10787802 0.2651676 -0.15102683 -0.26980877 -0.033250455 0.26386818 0.085545175 0.10557468 -0.13121635 0.020540625 0.025138635 -0.103827946 0.096189275 0.18882594 -0.031080076 -0.35893682 0.104912125 0.04646168 0.007160857 -0.08368274 -0.0054559098 -0.37047586 0.31772816 -0.06582969 0.4075784 -0.43940765 0.5055465 -0.25768873 0.21660545 0.15491413 0.013698698 0.41379368 0.08507246 0.1043139 -0.06290459 -0.386026 0.14139485 -0.16051152 0.0134823425 -0.3474838 0.57083386 -0.023288164 -0.036053676 0.24733552 0.31313568 0.19296348 -0.08271638 0.52434194 0.21321426 0.07627085 -0.063202016 0.56438303 0.34577584 0.07226465 -0.3534775 0.054755107 -0.006339171
送来 -0.35977414 0.34922436 0.18698442 0.12844577 0.21580635 -0.6408211 0.31047788 0.94675565 -0.24596255 -0.33772063 -0.018646965 -0.5310391 -0.1875415 0.11633033 0.24133648 -0.117377475 0.13413684 -0.1743444 0.06471983 -0.6030984 0.3002452 0.2487671 0.24824576 -0.34578183 0.10842098 -0.04797597 -0.37951478 -0.35710433 -0.23579454 -0.00958461 0.47135216 0.09605487 0.31345373 -0.26343116 -0.1892085 0.40870634 -0.07772758 -0.31197914 -0.26604292 -0.76536196 0.001113267 -0.19508521 -0.29360327 -0.17563187 0.3008148 -0.16986258 -0.3028241 0.014577187 0.28839195 0.09291247 0.12738492 -0.21172787 0.03563523 0.01788823 -0.08086998 0.1297544 0.2206636 -0.008125153 -0.36132655 0.14414959 -0.014758189 0.0015812317 -0.07492305 -0.09270218 -0.43639025 0.41380972 -0.14324157 0.3511567 -0.53419423 0.5699948 -0.4012077 0.22839478 0.13511315 -0.0020952541 0.47259405 0.1686395 0.06373663 -0.08702513 -0.55071497 0.12120051 -0.14190546 0.13741237 -0.3956614 0.73498297 0.0303696 0.0045859413 0.30227074 0.36553076 0.2949646 -0.11725324 0.6221656 0.3179568 0.039386366 -0.04519826 0.7291152 0.37687716 0.060722627 -0.52515733 0.14795169 -0.0051602013
非常 -0.33696306 0.1671013 0.1946331 0.079835415 0.11038163 -0.48426026 0.2389106 0.85900444 -0.14706028 -0.25185955 -0.12692921 -0.49705672 -0.052769218 0.20022002 0.17220704 -0.19397512 0.10175495 -0.34509152 0.12241768 -0.61458087 0.36402816 0.21044344 0.3445611 -0.38387334 0.14498879 -0.040100064 -0.2565443 -0.29847756 -0.28337905 0.014280434 0.38722426 0.06276389 0.2534745 -0.41533455 -0.11506925 0.3721371 -0.10121407 -0.3350572 -0.3605654 -0.59668785 0.0022780192 -0.32490337 -0.20149529 -0.09885785 0.37965715 -0.043312263 -0.3857075 -0.120282575 0.35606977 0.15464614 0.13858384 -0.14872584 0.07624972 -0.007671396 -0.093031876 0.22588532 0.27495477 -0.031153861 -0.44342348 0.12826513 0.041993137 -0.024857102 -0.16743161 0.006503343 -0.39019966 0.37802088 -0.054984067 0.47094852 -0.4523531 0.6080946 -0.28540543 0.22195967 0.2094879 0.04315754 0.48100564 0.06773987 0.19601008 -0.10418563 -0.4094029 0.2055857 -0.1880786 0.022467569 -0.49477023 0.6377364 -0.03276865 -0.13098265 0.19935971 0.44999316 0.17470863 -0.031239672 0.5687999 0.22473298 0.10735195 -0.12604913 0.557954 0.46843427 0.14216195 -0.3848577 0.04207984 -0.04162037
一个 -0.37350163 0.3291942 0.19687569 0.1240294 0.191216 -0.6492364 0.345943 1.0094806 -0.24959894 -0.33649153 -0.024027074 -0.5481278 -0.19076212 0.13437334 0.21673833 -0.14740714 0.14782543 -0.2089906 0.056605782 -0.6574181 0.30693063 0.23244339 0.27218258 -0.3657562 0.10384626 -0.07704208 -0.36415908 -0.390418 -0.26861638 -0.018467896 0.4933136 0.1106736 0.3488068 -0.30549327 -0.18184422 0.4213893 -0.07967882 -0.35380617 -0.27845284 -0.781076 -0.028398644 -0.23484358 -0.26882014 -0.16959772 0.37025803 -0.16161147 -0.32277867 -0.0072385715 0.33565286 0.1144862 0.1307331 -0.18744022 0.051630028 0.014236119 -0.079258986 0.14509912 0.25753763 0.005775551 -0.39597097 0.15383862 0.023404269 -0.008060299 -0.11601437 -0.08681508 -0.4644041 0.42976034 -0.14824693 0.40734047 -0.5512864 0.6293714 -0.39300394 0.23361556 0.17420657 0.011610914 0.51936144 0.15862851 0.104764275 -0.09693223 -0.5479302 0.14314084 -0.1412336 0.114719965 -0.46345603 0.7835728 0.030545829 -0.028795239 0.2982743 0.4121092 0.2969681 -0.09645669 0.65027213 0.3007603 0.06864628 -0.056539975 0.76765996 0.4156748 0.09019492 -0.54196465 0.14284137 -0.04315156
饭 -0.3416711 0.33307257 0.18753533 0.1363405 0.19303279 -0.6248102 0.2991341 0.95131147 -0.23165849 -0.36506724 -0.054206684 -0.46064875 -0.1659919 0.16968624 0.22441484 -0.117956996 0.1464856 -0.20234463 0.03206468 -0.64816517 0.30489847 0.23726009 0.2343849 -0.374199 0.10550427 -0.04294726 -0.40228996 -0.3433553 -0.26653296 0.021850683 0.48454887 0.0789341 0.2720301 -0.27537555 -0.16825636 0.43896583 -0.08073418 -0.2766338 -0.24854776 -0.81169087 -0.0292832 -0.22355534 -0.2862479 -0.11221464 0.3328289 -0.13323516 -0.33851287 -0.06337022 0.31285685 0.11686488 0.11533987 -0.23994836 0.005118674 -0.02634872 -0.07170459 0.17065854 0.20715602 -0.021633616 -0.41490966 0.15135352 -0.0016115739 -0.019940719 -0.09363981 -0.07191125 -0.42020056 0.443848 -0.11411999 0.37710497 -0.5089457 0.55747783 -0.39024004 0.1906102 0.13285105 -0.003053197 0.47549906 0.15319456 0.03905559 -0.080616266 -0.5179512 0.13409235 -0.11210142 0.1295083 -0.41693735 0.7361752 0.025513249 -0.041007407 0.28875902 0.4305802 0.2812719 -0.13950998 0.6035286 0.31222805 0.11101753 -0.060976855 0.6796026 0.3630617 0.059066683 -0.51426274 0.13941455 -0.017304271
时间 -0.39903912 0.33399138 0.17944083 0.13082786 0.2423627 -0.5955347 0.34230012 0.98965734 -0.25858128 -0.26257366 -0.034537874 -0.5560613 -0.14713225 0.10701111 0.19314778 -0.1820775 0.15695867 -0.2381666 0.082708575 -0.64567643 0.32049084 0.21972655 0.30755684 -0.392115 0.104073286 -0.087613635 -0.35232443 -0.39697897 -0.25268787 0.005076488 0.49891698 0.10135476 0.35354167 -0.30401132 -0.20444636 0.41427246 -0.11343464 -0.3521655 -0.3121123 -0.77903336 0.002933778 -0.2471045 -0.25908336 -0.18270704 0.3319647 -0.18336165 -0.32051167 -0.0037764467 0.33424813 0.101076886 0.12829323 -0.18806136 0.05342176 0.043518484 -0.12524492 0.12431593 0.24100067 -0.017942242 -0.43666017 0.11258468 0.03905637 0.0076656933 -0.0967064 -0.09083347 -0.49044457 0.4003099 -0.11219668 0.42362258 -0.5862566 0.62834686 -0.379465 0.25585213 0.16713315 0.0301769 0.51458675 0.11254196 0.12102451 -0.071267076 -0.5656617 0.16135283 -0.17385092 0.09973642 -0.4652577 0.773154 0.019311396 -0.016218446 0.28383204 0.39999524 0.29432726 -0.09197118 0.6823371 0.29739273 0.04511682 -0.0712244 0.7426113 0.43240783 0.0806831 -0.5159027 0.13403362 -0.008422492
凉 -0.33839855 0.31935993 0.1794984 0.14828923 0.20659858 -0.56605065 0.30668107 0.85853916 -0.2018472 -0.30288002 -0.006784731 -0.47869012 -0.15906568 0.13516214 0.1988778 -0.12281593 0.144336 -0.19235736 0.023197686 -0.5609826 0.25883752 0.22457284 0.23551115 -0.3110261 0.100559294 -0.045692906 -0.37230423 -0.32421708 -0.25130135 0.0026286999 0.4453686 0.07496885 0.27674216 -0.25970006 -0.16689987 0.3543941 -0.086464055 -0.25320077 -0.22042648 -0.7118035 -0.036800943 -0.19616403 -0.28854173 -0.1418809 0.30184728 -0.14327922 -0.3011495 -0.009517222 0.2934906 0.10753491 0.10953978 -0.21825856 0.026552342 -0.008526679 -0.06997584 0.14353956 0.21998647 -0.009473083 -0.34852406 0.15174475 -0.0075588766 -0.027439386 -0.081894375 -0.07244918 -0.42936498 0.37735125 -0.13313144 0.3671823 -0.4764478 0.55187047 -0.34995335 0.20413454 0.15240519 -0.002066069 0.43327436 0.12961662 0.050375547 -0.09728338 -0.47865665 0.10675789 -0.14343713 0.095300965 -0.37155998 0.68237734 0.032212038 -0.029571237 0.26309672 0.36216342 0.28020227 -0.1317264 0.57392335 0.28259283 0.07733675 -0.06782511 0.66678786 0.37014323 0.081785664 -0.4672876 0.11826266 -0.02702621
有点 -0.33906308 0.26342174 0.1717058 0.17118706 0.15493152 -0.5463248 0.28931093 0.85730493 -0.20767497 -0.32066634 -0.10402698 -0.45563605 -0.11694267 0.19639027 0.20005584 -0.11773241 0.13616566 -0.27742583 0.03740824 -0.63663864 0.33886048 0.24709922 0.3082668 -0.29546663 0.15127085 -0.047718983 -0.37204477 -0.2825263 -0.28781307 0.039333146 0.4591008 0.085003994 0.29848337 -0.32966956 -0.14445552 0.41419652 -0.11180941 -0.28570196 -0.2888987 -0.7230049 -0.0632047 -0.25018778 -0.27295732 -0.06840795 0.3754844 -0.061581735 -0.37796172 -0.121614315 0.3327698 0.16889986 0.12886001 -0.21732672 -0.019772382 -0.06239323 -0.08128566 0.20645313 0.22264472 -0.037961338 -0.42917347 0.16378216 0.009510906 -0.027705451 -0.16885962 -0.035716888 -0.45477134 0.40158167 -0.11204887 0.43189543 -0.42027357 0.6032227 -0.36189926 0.17778498 0.19324334 0.031587563 0.4502139 0.1272128 0.09888454 -0.112309 -0.4625143 0.14383927 -0.12880698 0.065205544 -0.4551156 0.6823958 -0.011739947 -0.10054395 0.26048094 0.4221532 0.23930395 -0.14923152 0.57768047 0.28624573 0.10110455 -0.08076925 0.62876946 0.3762168 0.09620179 -0.5021477 0.107403204 -0.047334146
慢 -0.32771894 0.22575776 0.16603787 0.11360592 0.17333591 -0.46710446 0.25813204 0.81717956 -0.19322865 -0.24187988 -0.06604412 -0.46570215 -0.07885666 0.15929729 0.17328107 -0.17302582 0.13008109 -0.25509134 0.049188476 -0.57514125 0.2883659 0.18314658 0.26972887 -0.31635147 0.14562954 -0.030932326 -0.28872985 -0.30873483 -0.2404139 0.0061251977 0.37879845 0.07544359 0.26446465 -0.3325524 -0.12099279 0.35098094 -0.08724757 -0.29816917 -0.27144977 -0.61670583 -0.039543815 -0.24333411 -0.20627102 -0.10061013 0.3160533 -0.10227028 -0.3295273 -0.04210413 0.30617747 0.10925467 0.1126996 -0.16167583 0.026327373 0.01214883 -0.09151081 0.14700675 0.23363666 -0.017575612 -0.3858175 0.13086103 0.043229263 -0.0207517 -0.10225382 -0.013515336 -0.39322197 0.35581407 -0.093809694 0.41971427 -0.46889067 0.5589319 -0.28103566 0.23587964 0.16299754 0.01968544 0.4297775 0.07000702 0.13217476 -0.08182198 -0.41446906 0.15214814 -0.17224325 0.03796026 -0.43066892 0.6237445 -0.013989974 -0.044988353 0.22761631 0.37211746 0.2233466 -0.08197614 0.54667526 0.25754276 0.09986728 -0.04750741 0.5985556 0.39963928 0.09029667 -0.4196096 0.056746148 -0.022807412
很快 -0.32260364 0.18262793 0.1776065 0.11310049 0.11000898 -0.42488262 0.24586448 0.76871616 -0.13568048 -0.21847673 -0.105608106 -0.43992838 -0.058627486 0.1602504 0.14597721 -0.18820147 0.08035811 -0.3216392 0.0873636 -0.5763596 0.31590328 0.17495665 0.295246 -0.31097233 0.15276742 -0.0350188 -0.2592234 -0.30087674 -0.2757995 0.010011914 0.35359165 0.061028253 0.28148916 -0.37472245 -0.08541795 0.3239324 -0.10833465 -0.2852453 -0.32059267 -0.54028434 -0.026418068 -0.32946438 -0.1984634 -0.057306055 0.32285577 -0.06805901 -0.3207438 -0.10396708 0.33054358 0.16366802 0.120572425 -0.12556152 0.03789352 0.009361724 -0.11228054 0.19470921 0.23269992 -0.06382069 -0.4468413 0.13871425 0.07064213 0.004097746 -0.14504531 0.018289221 -0.3586345 0.34174263 -0.059157144 0.4629409 -0.42469764 0.523179 -0.24408457 0.20125513 0.20372304 0.03342385 0.44684923 0.062064223 0.14691052 -0.06988142 -0.34786347 0.17629987 -0.16648301 -0.018785086 -0.44308418 0.5758536 -0.043445345 -0.11205272 0.22585993 0.39684647 0.19619812 -0.06693729 0.52895904 0.21751408 0.114880204 -0.083788484 0.5302923 0.42603943 0.094577126 -0.3667048 0.009604519 -0.05759772
特别 -0.35144803 0.1980902 0.19130586 0.105868876 0.14795133 -0.532497 0.23826042 0.8410923 -0.15151484 -0.29409388 -0.093233906 -0.47718814 -0.06725289 0.19859003 0.19598736 -0.17617711 0.10569497 -0.29896802 0.100613855 -0.5897903 0.3312688 0.219455 0.324638 -0.3594091 0.15974729 -0.055660054 -0.30240297 -0.2966686 -0.2812644 0.0266717 0.39890727 0.08605889 0.27976972 -0.34979206 -0.1339672 0.41171655 -0.11955146 -0.32036254 -0.30116174 -0.6494987 -0.022898903 -0.30332732 -0.2153275 -0.088151366 0.37470025 -0.04070211 -0.36767334 -0.09763065 0.34294233 0.13887067 0.1358004 -0.15571718 0.05271584 -0.027491614 -0.09284186 0.21783867 0.23436597 -0.022948809 -0.43118948 0.14886066 0.046505265 -0.016300084 -0.15118901 -0.023406625 -0.38473907 0.38524076 -0.07909632 0.43138856 -0.45266968 0.6022651 -0.3082288 0.20912726 0.19655822 0.04771689 0.47842684 0.106976226 0.13294318 -0.114432104 -0.4102121 0.19142736 -0.14884917 0.036832564 -0.4822326 0.6448568 -0.005119418 -0.0986707 0.22569753 0.4094938 0.23144005 -0.06286813 0.58720124 0.26051533 0.09467477 -0.095102236 0.5806275 0.41859978 0.0901859 -0.43448758 0.05786347 -0.062525265
百度 -0.37024465 0.24532747 0.17286791 0.06388402 0.18088217 -0.63186926 0.30641714 1.0485926 -0.19408408 -0.31999707 -0.054527838 -0.57641053 -0.15100946 0.15904586 0.22190894 -0.20303714 0.08009289 -0.3468069 0.14421907 -0.6862333 0.38645953 0.23851025 0.35406578 -0.4390889 0.14250451 -0.10431244 -0.30359307 -0.36646354 -0.3047524 0.0056923274 0.46558845 0.06449885 0.369366 -0.37023297 -0.16863294 0.4304463 -0.12539211 -0.40510055 -0.32838815 -0.76912296 0.029076155 -0.3523154 -0.27515438 -0.1691586 0.3837263 -0.11825861 -0.37119275 -0.052010614 0.34584752 0.1821145 0.1250674 -0.1848125 0.110393785 0.0089690415 -0.047825757 0.168178 0.3182878 -0.0027682579 -0.48560745 0.14936996 0.0073608626 0.007376583 -0.14922734 -0.08539074 -0.45951068 0.44539756 -0.07972088 0.4730264 -0.6087785 0.6372127 -0.3614031 0.2342379 0.22643536 0.02243735 0.5421568 0.09772065 0.14789438 -0.09330141 -0.5560404 0.1893982 -0.17092258 0.08001396 -0.53232837 0.8052301 0.027755924 -0.06407885 0.27610332 0.44984075 0.2722195 -0.03795064 0.6511743 0.32272294 0.09715296 -0.09008625 0.7383944 0.51663154 0.11944788 -0.5106741 0.13530852 -0.061546285
～ -0.30092672 0.20698684 0.20835762 0.13651405 0.089746095 -0.5949542 0.30725628 1.0086999 -0.26607743 -0.43824196 -0.1283192 -0.40005714 -0.23797181 0.30178648 0.20324332 -0.12924479 0.07361222 -0.42123368 0.062663436 -0.5898228 0.23138666 0.2053844 0.30441612 -0.31973708 0.2749851 -0.073704354 -0.23680985 -0.363148 -0.33915854 0.15084472 0.44887516 -0.049242023 0.28878894 -0.49198917 -0.1708509 0.513147 -0.17564702 -0.28547022 -0.31250027 -0.7436301 -0.17790775 -0.35235468 -0.31722328 0.0018241432 0.5751929 -0.039606113 -0.43009844 -0.12834589 0.3142976 0.20834893 0.12501949 -0.08945417 -0.026348783 -0.1292895 -0.07890875 0.28278446 0.16603379 -0.15604594 -0.49274352 0.1665007 -0.061065566 -0.05472837 -0.17287868 0.061838 -0.43722036 0.4251413 -0.06782198 0.5110352 -0.41632193 0.6233898 -0.25199664 0.1924386 0.1149366 0.037346527 0.6161693 0.05871562 0.07707731 -0.094544776 -0.36392704 0.18244623 -0.014566098 -0.07207756 -0.40944707 0.5818255 0.10082321 -0.03209524 0.27609056 0.42319033 0.34023687 -0.03418658 0.5422183 0.16512048 0.20035678 -0.20811911 0.5156104 0.49657595 0.091018654 -0.54384625 0.17347752 -0.12568977
态度 -0.3762188 0.2085801 0.18412411 0.063679494 0.14709207 -0.5574305 0.26424173 0.96237785 -0.14700806 -0.2841221 -0.08027156 -0.55288345 -0.06443331 0.20471084 0.1859594 -0.23540099 0.099386394 -0.32635313 0.11754916 -0.63741416 0.37845483 0.21823041 0.35258535 -0.4049735 0.1441019 -0.09545789 -0.2641357 -0.38214055 -0.29251254 -0.008710575 0.3993497 0.0852532 0.32070902 -0.4002941 -0.15501653 0.4178698 -0.13922241 -0.3926741 -0.35670462 -0.68162704 0.021516545 -0.34117344 -0.19946331 -0.15041561 0.38986585 -0.047082346 -0.3793764 -0.091310635 0.36033452 0.15546991 0.11954869 -0.1603511 0.07895757 0.006293898 -0.08486586 0.1894177 0.29205224 -0.03365829 -0.46330348 0.11933666 0.060289416 -0.013174298 -0.15149933 -0.03605143 -0.4256625 0.4227026 -0.089062095 0.46816108 -0.55480343 0.62910897 -0.29674262 0.23785652 0.2363708 0.04918845 0.52573353 0.093151145 0.18601348 -0.10416615 -0.48595285 0.236607 -0.20149487 0.054247335 -0.5346113 0.7227845 0.005387476 -0.109319516 0.25679678 0.45613387 0.22598088 -0.036926452 0.624082 0.25773597 0.10263933 -0.10326938 0.6329407 0.50984126 0.095212504 -0.45916978 0.04361224 -0.042496838
配送 -0.36540478 0.24168125 0.20447244 0.08676494 0.1519564 -0.59390914 0.2815144 0.96358633 -0.18060479 -0.3072038 -0.07175849 -0.52609664 -0.12647977 0.18322578 0.19916843 -0.21154581 0.09423982 -0.31249708 0.117258 -0.62806404 0.3773048 0.2339002 0.36163062 -0.425562 0.13619433 -0.091463186 -0.29551944 -0.36544824 -0.2934313 0.00034838435 0.4508843 0.100009665 0.31464747 -0.39503002 -0.121788666 0.38971728 -0.15266225 -0.37384036 -0.36222348 -0.7277164 -0.01579686 -0.3140666 -0.24368939 -0.14202845 0.39672965 -0.077475764 -0.37267298 -0.055292882 0.38148108 0.1451176 0.14803822 -0.14345051 0.05453066 -0.0145224435 -0.06885331 0.18172045 0.26503432 -0.03401286 -0.46441227 0.1346055 0.031233614 0.013626493 -0.15380035 -0.07047038 -0.4425303 0.420722 -0.09375666 0.44819152 -0.54442215 0.6400994 -0.3540391 0.22530194 0.2102777 0.039577343 0.51526767 0.12190642 0.1803654 -0.115199514 -0.5093829 0.21149674 -0.20866632 0.07476072 -0.5344909 0.7473669 0.0002300191 -0.10484509 0.27260932 0.45125088 0.25723723 -0.041438013 0.65370196 0.27988094 0.08215166 -0.10769363 0.66263616 0.48368812 0.102728315 -0.46394128 0.063278474 -0.07043086
两个 -0.3179446 0.34288704 0.15882145 0.12713343 0.1837951 -0.55109817 0.3307175 0.91091937 -0.22555916 -0.24294397 0.017916117 -0.5296239 -0.17997155 0.08492915 0.17840248 -0.13610797 0.16915499 -0.1266864 0.05406787 -0.5675967 0.2588551 0.16757727 0.21604477 -0.3211341 0.081951894 -0.038867332 -0.32955247 -0.3842521 -0.22441201 -0.017353613 0.42793044 0.10238396 0.33680877 -0.29801333 -0.16691712 0.35954574 -0.059490576 -0.304251 -0.26994184 -0.6749515 -0.03233834 -0.15473104 -0.2190759 -0.1880375 0.31511652 -0.2140483 -0.26340625 0.046990763 0.29057336 0.0698153 0.09398297 -0.16538762 0.04849831 0.048441637 -0.08055763 0.06064684 0.2186034 0.011211671 -0.32714108 0.11261226 0.029633122 -0.022223732 -0.07792712 -0.07439478 -0.40747282 0.35672012 -0.1231137 0.3892786 -0.51565546 0.5628049 -0.32206106 0.23130614 0.13353626 0.010009911 0.4907226 0.1438677 0.098043606 -0.08682822 -0.48303324 0.13927439 -0.16040143 0.083970584 -0.3925995 0.69115055 0.017842488 -0.010267952 0.28159055 0.3452636 0.258533 -0.09530305 0.5810736 0.26987556 0.053847756 -0.04481411 0.72816867 0.36939174 0.083991215 -0.4468714 0.11595668 0.008315133
粥 -0.33952072 0.27844125 0.19525094 0.12972747 0.16772336 -0.5996025 0.30519834 0.8845101 -0.23296577 -0.35662544 -0.071006596 -0.4493642 -0.19995292 0.15772969 0.24319553 -0.09421182 0.13486639 -0.21741037 0.031981163 -0.6463505 0.3110149 0.26256323 0.3111801 -0.3342195 0.13867207 -0.02980658 -0.40292987 -0.32447067 -0.2988341 0.042124208 0.43849817 0.076933905 0.33619848 -0.304526 -0.16985823 0.40622583 -0.13561499 -0.2939892 -0.27666587 -0.7445317 -0.044311177 -0.25854665 -0.29563466 -0.064033985 0.3655837 -0.10259522 -0.34685436 -0.08008339 0.325302 0.16445434 0.1394772 -0.21113046 0.0006656288 -0.045708697 -0.09830679 0.1816465 0.22295322 -0.010225818 -0.3964808 0.15386426 -0.008356397 0.0023548077 -0.14356971 -0.03277085 -0.45818716 0.45128825 -0.13055122 0.3979007 -0.4850356 0.5743629 -0.40402755 0.20679592 0.17252146 -0.01518179 0.48807627 0.16694744 0.0725809 -0.084633805 -0.5014785 0.13679264 -0.0976822 0.089427754 -0.43033513 0.71655566 0.03224117 -0.05662523 0.30062056 0.4121406 0.2425624 -0.16512719 0.59807426 0.30440372 0.096281834 -0.066278934 0.6842175 0.38710523 0.10604679 -0.50610834 0.09948494 -0.048102107
少 -0.3486669 0.26031783 0.17122361 0.14893597 0.16997543 -0.5712535 0.2781756 0.8696304 -0.21717374 -0.33698732 -0.06697282 -0.46971998 -0.14970033 0.16757019 0.21649167 -0.14333925 0.10889749 -0.23582762 0.051810533 -0.60683316 0.33103672 0.23191425 0.27993873 -0.32601506 0.12644944 -0.054840345 -0.33806145 -0.3069246 -0.26908648 0.019490078 0.43670857 0.08828451 0.29455534 -0.27514803 -0.15178125 0.42350727 -0.09554309 -0.27378353 -0.24863431 -0.73735607 -0.03664544 -0.2303597 -0.2660112 -0.09850658 0.3298494 -0.07482523 -0.33706287 -0.085277356 0.31711042 0.13952696 0.13546248 -0.19837174 0.022354236 -0.050788026 -0.07499446 0.1851572 0.22753522 -0.003829913 -0.40680605 0.15369926 -0.009880873 -0.009299436 -0.13043174 -0.08168934 -0.43574026 0.39712203 -0.119676955 0.3996039 -0.4682011 0.57411164 -0.35298365 0.19229572 0.15626742 0.018788217 0.4356199 0.14945257 0.1007243 -0.09411371 -0.46572676 0.12758884 -0.12559013 0.09269575 -0.4227127 0.6807431 0.017511748 -0.06391438 0.2617322 0.38986066 0.2711668 -0.11526225 0.5736084 0.2945938 0.07521776 -0.03831713 0.6369291 0.39474875 0.0849763 -0.5132425 0.11089568 -0.041824333
电话 -0.4302541 0.40233976 0.18738525 0.07350446 0.25075817 -0.75796074 0.36205652 1.1466157 -0.30547044 -0.367426 -0.0073550157 -0.6749909 -0.24406333 0.10689537 0.26909283 -0.2153223 0.16110829 -0.26794472 0.10762347 -0.7080207 0.39086464 0.29264042 0.3541944 -0.45990255 0.10735953 -0.10197069 -0.40603414 -0.48894227 -0.28084567 -0.03638375 0.56792045 0.09619102 0.41293547 -0.31140295 -0.24134424 0.48556882 -0.11878194 -0.4142106 -0.33366013 -0.9584132 0.009598683 -0.25642782 -0.29636377 -0.22142738 0.37167153 -0.19919656 -0.37152454 0.03277915 0.33841053 0.11054057 0.13135144 -0.19374315 0.0943889 0.034475725 -0.08460668 0.112375155 0.29798955 0.0006795533 -0.47077504 0.13401508 0.010419054 0.023059877 -0.12254771 -0.13156034 -0.54387003 0.48658657 -0.18149944 0.42523307 -0.6918984 0.69829977 -0.46938884 0.28365153 0.18722983 0.030918634 0.60492367 0.1793856 0.123591304 -0.098699525 -0.70497566 0.14828132 -0.1768212 0.16005124 -0.51866764 0.9203268 0.058254354 0.017403448 0.33873656 0.44772476 0.3389067 -0.1059681 0.76905763 0.3870698 0.045677487 -0.06624244 0.9147374 0.5162121 0.06046347 -0.6337313 0.16845441 -0.033286072
肉 -0.38235608 0.2941753 0.19588374 0.15263325 0.18645287 -0.67002845 0.3127087 0.95910335 -0.2379549 -0.40144375 -0.10448139 -0.48820743 -0.19279554 0.19989538 0.2700409 -0.13247158 0.10906276 -0.29377022 0.046322174 -0.687919 0.37396175 0.29146174 0.31993484 -0.35269147 0.15361129 -0.04734436 -0.40913963 -0.30302748 -0.32804456 0.035637543 0.510002 0.07587581 0.30705467 -0.30928293 -0.17109756 0.46894816 -0.11841431 -0.2864401 -0.27061766 -0.8314902 -0.05957565 -0.26810452 -0.34001598 -0.08206107 0.39618143 -0.08264365 -0.41185018 -0.10050673 0.36017033 0.18702188 0.15840164 -0.24714775 -0.008839715 -0.07840389 -0.056334898 0.25031278 0.26271728 -0.020134768 -0.4456378 0.16150321 -0.03460273 -0.018968126 -0.19752418 -0.07590614 -0.49090543 0.47471806 -0.14499672 0.4412695 -0.47602767 0.63648105 -0.43066093 0.2150825 0.20493677 0.013139828 0.49893585 0.15175414 0.089342795 -0.13367578 -0.5185697 0.12879513 -0.12545015 0.123100266 -0.49031097 0.78095424 0.034404974 -0.09884067 0.27769637 0.47327915 0.28105995 -0.16916281 0.65241015 0.33618 0.1210278 -0.07707178 0.720376 0.42476895 0.09390085 -0.5795223 0.12913877 -0.08306226
服务 -0.34988046 0.2233764 0.17643912 0.07358978 0.15272987 -0.5179124 0.25522876 0.8658953 -0.16365166 -0.2717085 -0.08373687 -0.49077696 -0.08271551 0.18589693 0.18355756 -0.19528252 0.098475955 -0.30450073 0.09288887 -0.5976293 0.33294258 0.20640871 0.30611464 -0.3626216 0.1483019 -0.069796726 -0.25897655 -0.3256948 -0.28279212 0.0004474267 0.3904727 0.07368578 0.27854022 -0.36191693 -0.13706303 0.3874563 -0.11752793 -0.32456854 -0.31729475 -0.6479842 -0.0025714308 -0.30777723 -0.21333626 -0.114378706 0.3422912 -0.066518456 -0.34797633 -0.08902221 0.33227333 0.15339762 0.12879546 -0.13824053 0.05550184 -0.009341048 -0.089489534 0.17915617 0.270325 -0.03416504 -0.43934435 0.13292333 0.04594234 -0.0008567673 -0.14686489 -0.0356803 -0.39230317 0.37203655 -0.084543675 0.4239476 -0.488002 0.57765543 -0.28320676 0.21020734 0.19400655 0.044777654 0.47733337 0.08146746 0.15613453 -0.08755733 -0.43483806 0.17895415 -0.15383586 0.053489044 -0.47029397 0.6496924 -0.0016113571 -0.08979282 0.2273226 0.42206034 0.21366142 -0.05086447 0.57958484 0.25108773 0.09962883 -0.0967868 0.57982093 0.44482514 0.09894221 -0.44035685 0.07017146 -0.05419099
打电话 -0.39777678 0.37455183 0.18266882 0.07871289 0.25692636 -0.7423763 0.3706878 1.1183182 -0.27104673 -0.34743136 0.0133581525 -0.62755895 -0.24707 0.08059467 0.24801494 -0.18933499 0.15649721 -0.22012118 0.088989064 -0.6740699 0.3550273 0.26129493 0.3214431 -0.4542733 0.0995827 -0.11565503 -0.36974457 -0.46395564 -0.26228607 -0.044953186 0.5546761 0.08967887 0.3991621 -0.29072785 -0.22939998 0.44647378 -0.10291931 -0.40565807 -0.29112566 -0.916604 0.02624271 -0.22572309 -0.2852342 -0.23823911 0.34985664 -0.20109372 -0.36155775 0.06994345 0.32243398 0.11283836 0.12475016 -0.19497165 0.089375705 0.03648716 -0.099866495 0.11540006 0.29287156 0.02059065 -0.42050013 0.14728284 0.00033622803 0.0124638425 -0.090963535 -0.15213516 -0.5167702 0.478756 -0.18936212 0.39845812 -0.6737543 0.650516 -0.4632992 0.2845246 0.16666415 0.019399095 0.58195853 0.15533927 0.11864551 -0.11057201 -0.6838103 0.13158154 -0.17531444 0.18797676 -0.5008866 0.89066786 0.04700234 0.010988991 0.33617696 0.4011416 0.32143134 -0.11101261 0.7218573 0.367016 0.03833304 -0.04664042 0.8883599 0.47612405 0.053445593 -0.61851496 0.16076818 -0.030591909
分钟 -0.38601255 0.339666 0.18608126 0.088630036 0.25493526 -0.671285 0.3343898 1.0383562 -0.24780507 -0.3246896 0.0045254254 -0.5974091 -0.18035106 0.099698104 0.2105246 -0.16267812 0.14849463 -0.203865 0.08671111 -0.6526634 0.29606086 0.22774947 0.28089055 -0.41489455 0.11102906 -0.09997501 -0.3455449 -0.42038062 -0.24033342 -0.023695596 0.5040568 0.10177679 0.3618049 -0.31701306 -0.223961 0.41904023 -0.09152572 -0.3818365 -0.32261533 -0.8321992 -0.0040503168 -0.21044159 -0.28941038 -0.20716774 0.34167662 -0.20237581 -0.32432476 0.03949767 0.29996935 0.08460864 0.13447899 -0.21003437 0.062006548 0.053975843 -0.11132894 0.113442734 0.2290197 -0.026332177 -0.39852333 0.14308085 0.015959749 0.008811192 -0.06745321 -0.10273185 -0.51289755 0.4153532 -0.14376716 0.4039249 -0.580304 0.61214316 -0.39684072 0.26160896 0.16446446 0.045446616 0.5224659 0.13322039 0.11092611 -0.0956171 -0.6184837 0.1344038 -0.16928057 0.13784687 -0.46061134 0.78499794 0.043719962 0.030519748 0.3105988 0.38750422 0.31882474 -0.0787065 0.69705445 0.3348795 0.017058501 -0.042230427 0.80013543 0.463827 0.044234794 -0.5559722 0.14655651 -0.014696033
量 -0.3701767 0.26347443 0.204513 0.1543398 0.17004639 -0.58489394 0.2997786 0.8958594 -0.2068071 -0.36081776 -0.086128406 -0.45841253 -0.13751478 0.17504756 0.22105639 -0.13210692 0.10795284 -0.29091772 0.06119935 -0.625518 0.30983555 0.25948867 0.27454036 -0.3397265 0.15486638 -0.050866302 -0.35818177 -0.29917878 -0.30459395 0.01936533 0.43945605 0.080821775 0.26599926 -0.29892913 -0.15886141 0.4389031 -0.117233284 -0.30040494 -0.26681376 -0.7439585 -0.036948256 -0.2722833 -0.29655808 -0.08878401 0.38446218 -0.079969175 -0.35270712 -0.109099284 0.3413907 0.16011041 0.12818283 -0.20549645 -0.0026700017 -0.056084663 -0.08720033 0.21590789 0.22586885 -0.037224144 -0.41606963 0.14055261 0.0084532 -0.001885993 -0.15208542 -0.06079446 -0.45062292 0.42034397 -0.124115236 0.4322718 -0.44949713 0.586746 -0.3384435 0.2158748 0.18975167 0.028941784 0.48221222 0.14307392 0.0846735 -0.12244125 -0.46734628 0.14094971 -0.112535715 0.06228091 -0.45034638 0.7052915 0.015139801 -0.09176628 0.25794175 0.41852096 0.26057214 -0.124584794 0.59152484 0.30850676 0.106247954 -0.055204157 0.65531284 0.41652155 0.08457741 -0.492098 0.0980957 -0.07240963
差 -0.35497504 0.28029284 0.17615962 0.092233665 0.19789916 -0.61268103 0.28672075 0.96358246 -0.19948153 -0.31531075 -0.07538373 -0.5250779 -0.119069 0.17744365 0.23733623 -0.18261212 0.118260406 -0.2832143 0.10119605 -0.6257613 0.37322503 0.2387461 0.32349315 -0.3826427 0.13402416 -0.081771806 -0.33525643 -0.3433146 -0.2967351 0.01323584 0.46977866 0.07503604 0.32842347 -0.32206753 -0.16522759 0.44070166 -0.10819889 -0.3339004 -0.31963807 -0.7435803 -0.022070419 -0.26945525 -0.24626718 -0.13071637 0.34195796 -0.089879096 -0.37234887 -0.04662565 0.34334314 0.13678977 0.12596685 -0.20175003 0.049920555 -0.02840801 -0.067254394 0.18835594 0.2768154 0.0015806975 -0.4445428 0.12885106 0.025835475 -0.0054928656 -0.14441447 -0.05811265 -0.44979674 0.43950176 -0.10772005 0.42180982 -0.54621524 0.6229056 -0.36301234 0.22886164 0.19085689 0.014866717 0.5162967 0.12616742 0.14238432 -0.106573306 -0.51442903 0.16692165 -0.16662355 0.08220391 -0.5003388 0.75402325 0.016540071 -0.064092524 0.26210502 0.4177059 0.2704807 -0.09544559 0.66060835 0.31459528 0.07730726 -0.07202519 0.6821722 0.43736088 0.0809591 -0.5062233 0.0987185 -0.058796007
米饭 -0.3837177 0.3112877 0.16728716 0.13696574 0.20106636 -0.6278481 0.27493256 0.9074877 -0.24467984 -0.34964582 -0.07598093 -0.47675484 -0.18524694 0.15794826 0.26639417 -0.120917946 0.12891836 -0.2556657 0.06525554 -0.63718826 0.32254696 0.2502278 0.2729426 -0.33476135 0.12141093 -0.05782882 -0.39257935 -0.3394137 -0.29655594 0.01569735 0.49782607 0.088772915 0.29198682 -0.272705 -0.15693961 0.4175825 -0.118824996 -0.28122872 -0.24680735 -0.79439604 -0.035269268 -0.22911407 -0.3054556 -0.094880134 0.34126273 -0.0958706 -0.3417105 -0.060016192 0.33770055 0.14903665 0.13255265 -0.20906217 0.012974688 -0.023522828 -0.064642414 0.19835955 0.24475968 -0.0007686706 -0.41966298 0.1523494 -0.014682147 0.013403859 -0.14703768 -0.07031714 -0.4273199 0.4267464 -0.1280713 0.3809089 -0.4734859 0.57276773 -0.37936798 0.1945961 0.15080062 0.0073503926 0.48145825 0.17049687 0.072473325 -0.09831874 -0.492229 0.11397071 -0.11231738 0.10530134 -0.42430222 0.7298373 0.03457907 -0.04094266 0.27424163 0.42656267 0.30079183 -0.13303539 0.6308579 0.3367583 0.07661217 -0.03600132 0.6782935 0.39514166 0.0868499 -0.5373529 0.13776276 -0.048032086
小哥 -0.37145704 0.20398901 0.17957433 0.05745852 0.147535 -0.4877995 0.26664758 0.8672007 -0.15279381 -0.2079973 -0.13181105 -0.53711855 -0.045620754 0.16041656 0.16775478 -0.21961996 0.06340414 -0.37017006 0.14126873 -0.6190899 0.36529338 0.23095885 0.3615461 -0.38830632 0.17200197 -0.080018766 -0.2514618 -0.3663958 -0.2917101 0.0026962757 0.37939763 0.09091042 0.31554365 -0.36798656 -0.14199527 0.4034662 -0.1533895 -0.37969553 -0.35186443 -0.6375113 0.013593417 -0.38565516 -0.20019637 -0.09966759 0.33353448 -0.05027543 -0.3704136 -0.11732396 0.32643938 0.17535725 0.15340242 -0.15144473 0.063105725 0.004755186 -0.09764155 0.19708148 0.3130091 -0.021942811 -0.5195913 0.14221267 0.08587322 0.008365071 -0.17384636 -0.016539328 -0.375768 0.3943479 -0.058756597 0.47172537 -0.52697164 0.58101904 -0.31267524 0.23497373 0.21556848 0.05643682 0.525444 0.04698127 0.18202133 -0.105837196 -0.43204615 0.23628163 -0.1922575 -0.0015022744 -0.519014 0.65873677 -0.03140747 -0.11808025 0.2592365 0.45419198 0.22194761 -0.05148673 0.5879406 0.26841658 0.0954731 -0.09013624 0.61136484 0.51022965 0.12388748 -0.40365505 0.052409597 -0.06747843
里 -0.43842232 0.36746532 0.22118041 0.14473297 0.22858386 -0.7783968 0.33000454 1.0920308 -0.2889393 -0.4181531 -0.07907174 -0.58148503 -0.22243632 0.19780323 0.3096311 -0.13042328 0.1369415 -0.28638685 0.06932743 -0.7742745 0.4117155 0.29411218 0.34901333 -0.41091946 0.12557264 -0.06300057 -0.46437094 -0.3835657 -0.33974692 0.00084782566 0.5776822 0.11050239 0.38593206 -0.30346584 -0.20060186 0.48898458 -0.13251248 -0.3356177 -0.3140834 -0.9359106 -0.018678185 -0.28239265 -0.36592716 -0.1382912 0.4019389 -0.11069493 -0.40668854 -0.04461911 0.3742532 0.18564357 0.15519488 -0.24084167 0.006935321 -0.03985605 -0.06742221 0.22481117 0.29205292 -0.003520146 -0.4860914 0.17141029 -0.01338068 0.0037071342 -0.17223957 -0.07911027 -0.5231012 0.5120647 -0.14637476 0.44896275 -0.57736725 0.70122164 -0.49131763 0.22634733 0.18007779 0.008100222 0.5742326 0.2131752 0.09646895 -0.13804346 -0.62453985 0.13449712 -0.1208172 0.13404192 -0.5154669 0.90138507 0.039934464 -0.05126594 0.33316815 0.49171144 0.34255952 -0.16717972 0.7494925 0.38615796 0.08569392 -0.039272033 0.82306796 0.48176137 0.09183541 -0.64201933 0.15835129 -0.060298666
快递 -0.4059493 0.25425053 0.20733713 0.061837114 0.14880839 -0.63474923 0.27527133 1.022044 -0.16667423 -0.3211779 -0.11174333 -0.54998624 -0.14182287 0.18759832 0.2268903 -0.24301526 0.077967264 -0.37766752 0.1187175 -0.6733035 0.40443003 0.24698956 0.40362987 -0.4627442 0.14972803 -0.1006646 -0.3219378 -0.41319215 -0.3120834 0.0033743046 0.44860345 0.111929655 0.32178757 -0.42209083 -0.13542897 0.41506487 -0.1982017 -0.39453653 -0.40832588 -0.7526669 0.0019418726 -0.3707389 -0.24353312 -0.13602504 0.44238424 -0.05381809 -0.40143755 -0.08503705 0.40566608 0.18928118 0.17773432 -0.15552671 0.059769414 -0.017336037 -0.100894146 0.20767649 0.27615923 -0.062456068 -0.49560526 0.15387936 0.06342688 0.007756243 -0.16934058 -0.06833916 -0.43271834 0.436459 -0.07316921 0.4948955 -0.572751 0.6825089 -0.375356 0.20980841 0.21954677 0.05408016 0.5340597 0.13708256 0.19103403 -0.10422742 -0.51117295 0.2398254 -0.19987538 0.080901116 -0.5793426 0.7598879 0.01655396 -0.121656306 0.29783025 0.5076378 0.24682452 -0.0398413 0.6972241 0.27280363 0.06052077 -0.1421528 0.69075245 0.54210794 0.12551877 -0.4949816 0.033168398 -0.08541382
以后 -0.3545318 0.29668263 0.16015525 0.107360475 0.17274728 -0.6852741 0.33439195 1.0562072 -0.28088188 -0.3317844 -0.046711497 -0.55749965 -0.20010106 0.15697384 0.22494128 -0.16521323 0.10726811 -0.2666965 0.051957987 -0.64551824 0.39231938 0.24647021 0.28876767 -0.38320348 0.12869953 -0.09279025 -0.34495416 -0.36974186 -0.28565708 0.010324345 0.51724803 0.089340605 0.35988402 -0.32268953 -0.18508205 0.4448103 -0.087712966 -0.32346988 -0.2709649 -0.8610876 -0.0030415603 -0.26306042 -0.29507315 -0.13224024 0.32929093 -0.12750362 -0.3811793 -0.02696801 0.33480677 0.120790355 0.10994571 -0.22039786 0.08074794 -0.07357455 -0.019975126 0.16595198 0.28585705 0.02543526 -0.40110713 0.15750352 -0.0020878594 -0.03901748 -0.13239363 -0.12669936 -0.50604576 0.42543235 -0.121412836 0.43118292 -0.5683751 0.60366213 -0.42465022 0.1903504 0.14817713 0.030789992 0.52002335 0.15497416 0.10717155 -0.12001381 -0.5850931 0.16521555 -0.11389611 0.15421712 -0.47832936 0.7820955 0.010157627 -0.041392215 0.28033313 0.40452623 0.2963646 -0.096810706 0.6854195 0.33964267 0.092583865 -0.04555163 0.77953535 0.42787513 0.06961298 -0.546501 0.17433017 -0.06622376
饼 -0.3571338 0.31091586 0.20771962 0.13817811 0.19486763 -0.6311255 0.2852755 0.93508404 -0.24365266 -0.3815309 -0.070314854 -0.4652903 -0.19650531 0.19420359 0.26359904 -0.11276213 0.116936035 -0.25361574 0.019282192 -0.6770149 0.34852475 0.2602485 0.3134201 -0.33937973 0.1329511 -0.056489818 -0.41918594 -0.3267732 -0.2866727 0.04926279 0.46378165 0.066055655 0.31770435 -0.30879086 -0.15182096 0.44790256 -0.1274602 -0.2733096 -0.2583838 -0.7925418 -0.04494437 -0.27522704 -0.3100783 -0.08029322 0.38048923 -0.115807064 -0.36622852 -0.07859433 0.34193653 0.18319419 0.14795673 -0.21948867 -0.01197271 -0.037650477 -0.08818306 0.21681595 0.26492083 -0.013207243 -0.39504975 0.16122696 -0.010710123 0.0023849092 -0.16645844 -0.052740123 -0.48034936 0.46310198 -0.115442574 0.4273872 -0.47385937 0.6191056 -0.41009635 0.19666903 0.17705712 0.009782222 0.48158807 0.14226481 0.072624594 -0.09949765 -0.4903319 0.13313438 -0.11927257 0.09809722 -0.4635436 0.7613914 0.027872069 -0.055152476 0.2702844 0.43672594 0.2765542 -0.15057668 0.61458457 0.31155348 0.0978113 -0.08307555 0.7110259 0.41471475 0.087357655 -0.5574438 0.1150298 -0.055455428
~ -0.09002443 0.14011535 -0.036496785 0.3930826 -0.11801855 -0.39600733 0.4658447 0.8830682 -0.4478108 -0.09740795 -0.2793436 -0.6472443 0.16291359 -0.001275674 -0.06968226 -0.30639046 0.1864254 -0.20869367 -0.10010802 -0.7817964 0.6660436 0.5262417 0.62272024 -0.3195479 0.28487948 -0.028139831 -0.22546689 -0.12311689 -0.2284085 -0.06129519 0.36001113 -0.046801463 0.5380925 -0.5362604 -0.07829623 0.46482107 -0.14379129 -0.48666522 -0.22978982 -0.8851705 -0.24526374 -0.36378652 -0.16803616 0.12733068 0.39073703 0.27686158 -0.6176466 -0.32248884 0.12176765 -0.0005016922 0.35333836 -0.4542893 -0.22077027 -0.3835719 0.21250105 0.115776844 0.32814506 -0.20450528 -0.5878148 0.12022289 -0.07693452 -0.28566247 -0.3928584 -0.0411966 -0.77469325 0.42997783 -0.18013501 0.74282515 -0.46239027 0.7312672 -0.57326514 0.10998372 0.3435256 0.09110897 0.30231774 0.0645755 0.5374692 -0.41074246 -0.55472666 0.19357987 -0.2088953 0.33162063 -0.64187074 0.46839556 -0.25191236 -0.40318277 0.066270955 0.3155937 -0.02053964 -0.18149267 0.58187574 0.1407348 0.19996282 -0.037112042 0.87584615 0.29217038 0.2796154 -0.29817465 -0.060369268 -0.24046
已经 -0.39460835 0.34597293 0.20719317 0.14087334 0.23236981 -0.69627005 0.3462447 1.0350628 -0.25129828 -0.36726126 -0.022199776 -0.57596886 -0.2126353 0.13236675 0.25566903 -0.13413002 0.1361695 -0.21796754 0.05684105 -0.6513007 0.31895262 0.27320427 0.28031167 -0.3943272 0.11847549 -0.07182681 -0.40496203 -0.39326766 -0.27974927 -0.0085378485 0.52194357 0.10081968 0.3639633 -0.2805474 -0.21029468 0.45065072 -0.08926885 -0.3311114 -0.27140933 -0.84809893 -0.0023831592 -0.22809878 -0.31187615 -0.18458554 0.34809813 -0.15583111 -0.35797998 0.014217337 0.32917765 0.12001614 0.12984687 -0.21792208 0.053852156 0.010936303 -0.093058854 0.15577102 0.25212902 -0.008547894 -0.40154833 0.16587785 -0.002660644 0.01030571 -0.116481416 -0.115195625 -0.49355882 0.43997544 -0.14912349 0.39357013 -0.57848424 0.62309337 -0.4215858 0.2350357 0.16842167 0.011363648 0.5267223 0.16660142 0.09567894 -0.10746569 -0.5861692 0.13112214 -0.13892847 0.14008842 -0.45111355 0.81802595 0.024871988 -0.0019682972 0.3116764 0.40622702 0.30668384 -0.13418877 0.675096 0.34885865 0.07081836 -0.04181831 0.7831481 0.44556925 0.060932793 -0.56520236 0.16367112 -0.030434284
东西 -0.3818389 0.27513015 0.1871571 0.115857236 0.17220192 -0.6066973 0.30659696 0.95113635 -0.21426083 -0.31656212 -0.07887006 -0.5133613 -0.15352245 0.14735352 0.22108117 -0.15146345 0.11956079 -0.2633696 0.07165133 -0.64157635 0.34882635 0.23930094 0.30588672 -0.35759646 0.12893066 -0.067890294 -0.34118813 -0.3582086 -0.28432262 0.00467305 0.45545942 0.08956741 0.33127758 -0.31614 -0.14981428 0.41601962 -0.11431776 -0.32354933 -0.29291293 -0.74160916 -0.0030476763 -0.26657754 -0.28177106 -0.12873445 0.35767597 -0.103491746 -0.35188952 -0.051394124 0.3483547 0.13088642 0.14014187 -0.19565107 0.041893203 -0.006892583 -0.094669856 0.1827568 0.25411993 -0.023473809 -0.42324907 0.14825584 0.013683199 0.0061232685 -0.1452767 -0.068957105 -0.43293405 0.42357203 -0.11538972 0.4285864 -0.52212936 0.6002194 -0.36850587 0.22278959 0.18526177 0.013284137 0.50781685 0.1353965 0.12539622 -0.10744651 -0.51492476 0.15365575 -0.15782137 0.08774573 -0.4602882 0.73635834 0.003847288 -0.067417346 0.27022696 0.41975954 0.27024427 -0.1105808 0.64674413 0.30536038 0.09536281 -0.05817421 0.7042781 0.42748216 0.08814916 -0.50487703 0.09731855 -0.029089978
差评 -0.35825792 0.32015198 0.18509208 0.11666458 0.18712182 -0.6394871 0.3063125 0.9378328 -0.24775271 -0.31508926 -0.02621625 -0.5215158 -0.15592836 0.13116634 0.22938457 -0.15934649 0.10608232 -0.21521884 0.08378453 -0.5779704 0.3232362 0.20381314 0.28655827 -0.3769082 0.09562809 -0.04890029 -0.3520856 -0.36886984 -0.26643607 0.006751631 0.45009267 0.090520866 0.3147881 -0.25791648 -0.16980907 0.37266767 -0.09876927 -0.28736052 -0.2508432 -0.7579169 0.011747442 -0.20985724 -0.25237417 -0.15128829 0.28939033 -0.14366503 -0.3079324 -0.024328936 0.32395086 0.09620502 0.10753594 -0.20056222 0.06499992 -0.022134012 -0.042419367 0.117402904 0.2590529 0.014936394 -0.38651428 0.15899013 0.0071255476 0.000833172 -0.10213927 -0.073321365 -0.42391646 0.42388436 -0.12189194 0.35051718 -0.53038496 0.55771583 -0.3808604 0.21447366 0.17614414 -0.0007509582 0.4930665 0.15367742 0.085153334 -0.09708521 -0.49694607 0.11943683 -0.12899604 0.13085482 -0.42570436 0.7171052 -0.0045264037 -0.049996868 0.2789586 0.38731456 0.29972094 -0.09343242 0.62075984 0.31317928 0.041473966 -0.0780063 0.7127101 0.37989688 0.055737652 -0.51548666 0.14229165 -0.037309248
不会 -0.32347292 0.3034565 0.15656728 0.10758238 0.17503874 -0.6646336 0.33645257 0.99294376 -0.25224483 -0.36158922 -0.08080409 -0.5395236 -0.19388299 0.12710951 0.24522972 -0.121099815 0.104485884 -0.23216817 0.07508064 -0.6265408 0.3845942 0.24825433 0.26708436 -0.3625146 0.112546265 -0.038016953 -0.3737268 -0.34466666 -0.29110426 0.017066315 0.4900889 0.06202803 0.32686973 -0.2920659 -0.17040342 0.44925806 -0.092625864 -0.32027477 -0.27892047 -0.7985745 -0.03385192 -0.24268487 -0.2905799 -0.14937845 0.3479513 -0.12728088 -0.39223996 -0.07033084 0.31602487 0.10539942 0.13295245 -0.20285153 0.061678503 -0.06311413 -0.02841222 0.13803965 0.2873406 0.005087858 -0.41582495 0.15529922 -0.023212058 -0.03659134 -0.14020309 -0.11287149 -0.46756074 0.41381457 -0.11412766 0.38820925 -0.5264193 0.5706364 -0.42889416 0.184382 0.1272748 -7.2405564e-05 0.49480566 0.17123382 0.10405966 -0.092083395 -0.5609447 0.15444088 -0.14026125 0.14811215 -0.42222112 0.7776397 0.008650544 -0.020582313 0.25818577 0.4155838 0.27482146 -0.14205797 0.6634963 0.3351002 0.068291575 -0.0741501 0.7377115 0.40556413 0.06285061 -0.5502713 0.14742942 -0.03474771
一点 -0.3745595 0.30754945 0.19520597 0.118893564 0.19079582 -0.6377896 0.30194452 0.93833 -0.24393097 -0.36662522 -0.056333262 -0.5127674 -0.19814152 0.16417895 0.2490926 -0.12758769 0.12286562 -0.24578717 0.06408935 -0.63018733 0.3288037 0.24243523 0.277137 -0.3385062 0.1302429 -0.068045706 -0.35608125 -0.32474163 -0.27196515 0.008756873 0.47110045 0.08146147 0.3023423 -0.27931076 -0.16733614 0.42035186 -0.09608644 -0.31344354 -0.25897148 -0.7863757 -0.024150614 -0.24787553 -0.29066345 -0.10501886 0.35215482 -0.11155448 -0.3663011 -0.041637182 0.3335464 0.15110418 0.124503 -0.21248984 0.035974767 -0.037651833 -0.06961604 0.19387786 0.24051028 -0.010148475 -0.4113515 0.1465836 -0.0154251605 -0.0026018664 -0.15142733 -0.08067907 -0.45253712 0.43545392 -0.11971713 0.40203598 -0.48717386 0.58370364 -0.3951705 0.22235599 0.16606812 -0.0018437647 0.4990333 0.1664291 0.10346316 -0.115858324 -0.5171481 0.12212463 -0.115602605 0.107438974 -0.44719908 0.7474897 0.04540567 -0.04531635 0.2694428 0.41071016 0.28006664 -0.11571404 0.6263149 0.31546018 0.06813762 -0.0592979 0.70451903 0.41604492 0.08278998 -0.5411536 0.15003012 -0.04271197
餐员 -0.30240428 0.2351981 0.14081988 0.09598629 0.17581739 -0.46675038 0.2583859 0.82853323 -0.17597754 -0.26791415 -0.014239351 -0.45263836 -0.11113419 0.11165002 0.18019949 -0.20051475 0.1211189 -0.19693814 0.046206817 -0.52127606 0.24985828 0.15122359 0.2923357 -0.34496912 0.1112563 -0.10363956 -0.29217568 -0.3781269 -0.21926823 -0.040586445 0.34256467 0.04759922 0.2832587 -0.30888012 -0.1659874 0.31922004 -0.0778377 -0.3065885 -0.25079948 -0.62627655 0.00037597108 -0.2148774 -0.17447583 -0.12809898 0.29650542 -0.10517014 -0.32081458 0.011737535 0.2962934 0.09920173 0.11884302 -0.14973833 0.07901237 0.0040599974 -0.09437585 0.11038877 0.24574427 -0.0047750166 -0.41272074 0.13499919 0.034843463 0.010845428 -0.08603015 -0.03698012 -0.3751306 0.36511257 -0.14129205 0.39212483 -0.5225363 0.5098719 -0.30575347 0.2445827 0.19307159 0.014755674 0.4592184 0.05652228 0.12190793 -0.080273606 -0.47335333 0.13307236 -0.16222027 0.049607474 -0.416527 0.6683863 0.002015775 -0.021282082 0.26627964 0.34606114 0.23426326 -0.041789923 0.5886031 0.28801358 0.1101339 -0.029867271 0.65697616 0.40730512 0.051442835 -0.4104214 0.063941404 -0.035090692
做 -0.394224 0.30079645 0.20617379 0.12680924 0.2097021 -0.6716906 0.33711123 1.019733 -0.25180048 -0.37741607 -0.07188984 -0.5661636 -0.18361187 0.16535614 0.2672754 -0.1568286 0.114341386 -0.30099916 0.07755173 -0.7014193 0.37707478 0.27333117 0.31252232 -0.38219246 0.13268128 -0.07966946 -0.39155075 -0.3705265 -0.31442156 0.0037515908 0.506592 0.084853575 0.3454158 -0.3236968 -0.18992664 0.4622777 -0.11810195 -0.33331895 -0.2971296 -0.83710945 -0.0104145855 -0.29078415 -0.3014907 -0.12025671 0.3761708 -0.10847534 -0.3937049 -0.05961765 0.34596875 0.17124392 0.12576936 -0.22159678 0.04401123 -0.038085483 -0.06404195 0.18872152 0.27672482 0.005560456 -0.4614608 0.16689426 -0.011971305 0.00020321982 -0.15256315 -0.09235598 -0.49858123 0.45727426 -0.11847774 0.4456813 -0.55097175 0.647709 -0.4078144 0.22693254 0.19092731 0.0043629524 0.54350877 0.14727785 0.10729656 -0.11496155 -0.5510272 0.13762192 -0.1384801 0.12426707 -0.49641317 0.81719285 0.032387797 -0.046397034 0.28144968 0.46038088 0.31275 -0.13178574 0.68414015 0.33582288 0.1030373 -0.047765583 0.7512264 0.45412877 0.08306895 -0.58488816 0.14783503 -0.06456664
感觉 -0.3543723 0.26912773 0.18439849 0.14116916 0.17110226 -0.613435 0.2722927 0.90535086 -0.22803465 -0.33730903 -0.084162556 -0.47706702 -0.1734611 0.1835637 0.25287426 -0.118299566 0.10558621 -0.2727539 0.059571665 -0.64516664 0.34524316 0.26245657 0.28964224 -0.32340208 0.12393925 -0.039079215 -0.3609773 -0.31273243 -0.29668996 0.042919144 0.4743859 0.07839934 0.30487266 -0.28897807 -0.15253735 0.42693654 -0.11843175 -0.28703746 -0.2678093 -0.7625777 -0.032719858 -0.27120847 -0.2847969 -0.067446776 0.3632973 -0.08051826 -0.37481725 -0.0750352 0.32892767 0.15020278 0.14512363 -0.19691445 0.009399139 -0.054978795 -0.06263981 0.20779875 0.2646591 -0.021540254 -0.41149795 0.15254614 -0.006291577 -0.0048927455 -0.16677491 -0.056861058 -0.44333366 0.4345137 -0.10699566 0.42240918 -0.4702306 0.5906635 -0.3885274 0.18113506 0.16081506 0.009048341 0.4898615 0.16127333 0.09187826 -0.09225493 -0.4822789 0.12094344 -0.109911874 0.08844391 -0.44624463 0.7285097 0.036633253 -0.054088276 0.26174876 0.43742958 0.27646297 -0.13932057 0.6215336 0.3095916 0.08088762 -0.054197934 0.6602358 0.40863526 0.088196605 -0.51055187 0.1153319 -0.044190735
卷饼 -0.30060044 0.24914373 0.17372751 0.13325375 0.13290165 -0.525714 0.27849177 0.81207484 -0.19933364 -0.30757993 -0.09346596 -0.41480544 -0.15680356 0.16765586 0.20772515 -0.12296324 0.10491981 -0.25469664 0.021200322 -0.60690486 0.32171145 0.24568574 0.27729383 -0.30185676 0.1359374 -0.039416015 -0.35492706 -0.27882776 -0.26859763 0.049571414 0.4085467 0.073461115 0.28651536 -0.29367322 -0.12084298 0.39859045 -0.09092997 -0.2486693 -0.2638862 -0.6710231 -0.059839513 -0.2607117 -0.2820542 -0.057403598 0.3438383 -0.077086896 -0.33491072 -0.073354505 0.31443945 0.16669296 0.12786412 -0.20397678 0.0046036677 -0.055807844 -0.07870123 0.20027368 0.21423689 -0.036561884 -0.36834973 0.15653463 -0.0024567184 -0.014912745 -0.14387837 -0.03310403 -0.40516633 0.39145574 -0.097780116 0.40560594 -0.43324816 0.548853 -0.33784872 0.18734123 0.16890097 0.005249528 0.41916195 0.11962779 0.09114043 -0.10825888 -0.42143366 0.12993385 -0.10314659 0.062462356 -0.42133772 0.6367633 0.017666018 -0.09129951 0.2479452 0.40049294 0.2255578 -0.10746283 0.55138654 0.26146108 0.10531823 -0.08291744 0.5880033 0.36229745 0.10457329 -0.45682344 0.103499085 -0.067713946
知道 -0.34746218 0.29444703 0.17512909 0.105682276 0.19014551 -0.6385648 0.30918065 0.9515697 -0.23624325 -0.33839172 -0.056717157 -0.52408785 -0.18447325 0.14035077 0.22550906 -0.14275779 0.100643665 -0.24098329 0.06886388 -0.62618715 0.34103328 0.2600111 0.29179364 -0.35903177 0.10228824 -0.07221496 -0.34271318 -0.33969033 -0.25102514 -0.009738953 0.47136456 0.08652463 0.3216796 -0.26373774 -0.18028545 0.40576214 -0.084508575 -0.30252534 -0.25370097 -0.77677554 0.0012183777 -0.23321934 -0.27820632 -0.12548995 0.33130077 -0.110134974 -0.33901164 -0.030095028 0.30247036 0.12903158 0.11453134 -0.17935733 0.05361609 -0.035946187 -0.066249564 0.14248583 0.25361302 -0.003987232 -0.39735457 0.13696675 -0.0069604926 0.009170392 -0.135294 -0.114775635 -0.4410279 0.4118291 -0.12249117 0.3770116 -0.5270072 0.56123203 -0.39662147 0.2083338 0.1606719 0.015339799 0.4758185 0.14942303 0.10950859 -0.10649411 -0.53921264 0.13034825 -0.13043086 0.12774707 -0.43694803 0.7370076 0.039096233 -0.045671385 0.28213653 0.38840708 0.2637091 -0.115035914 0.61525387 0.31483105 0.07686833 -0.04796101 0.7242432 0.40629396 0.070649885 -0.52359295 0.13282569 -0.033611484
辛苦 -0.37295952 0.22972046 0.1760604 0.051270727 0.13724686 -0.5604396 0.26534715 0.94988817 -0.16318072 -0.2935957 -0.092888094 -0.5305669 -0.10157814 0.1824729 0.18964674 -0.24508311 0.07258031 -0.36683518 0.13970524 -0.662097 0.3658203 0.22114433 0.3801627 -0.42448568 0.15162908 -0.101610824 -0.2764585 -0.39325598 -0.3138667 0.013875526 0.41518608 0.06573892 0.33174306 -0.41065755 -0.13178445 0.38760006 -0.18386924 -0.3736673 -0.36122328 -0.69397104 0.018875258 -0.38748428 -0.2311895 -0.11746345 0.40265802 -0.042824928 -0.38547736 -0.1084815 0.37178975 0.19225119 0.14347932 -0.14813216 0.05741058 0.00350558 -0.08666939 0.21320425 0.2828991 -0.0708324 -0.48752025 0.14145231 0.068504445 0.0024126116 -0.18595888 -0.031937055 -0.4170337 0.41295 -0.048698243 0.47972298 -0.55981123 0.64101905 -0.33719617 0.20674418 0.22890386 0.060573567 0.52338475 0.08325243 0.16734292 -0.09356872 -0.48367685 0.24927452 -0.1831273 0.038155653 -0.53855115 0.7268614 -0.0046131737 -0.12078673 0.25271514 0.4762865 0.2448624 -0.04201152 0.6296149 0.24825151 0.08278194 -0.11276362 0.6243177 0.52491355 0.13248481 -0.45676455 0.027616348 -0.059535876
不要 -0.37103114 0.30322078 0.180357 0.11427022 0.22093448 -0.69493204 0.32598805 1.0275198 -0.2648587 -0.36224124 -0.046556756 -0.5688733 -0.19950132 0.14368446 0.26350352 -0.13095611 0.12042303 -0.24033323 0.08253652 -0.6387981 0.36000177 0.2515189 0.26860267 -0.38597894 0.12004259 -0.07305947 -0.38732055 -0.37222734 -0.2938307 0.0051874896 0.49638805 0.091409035 0.3299773 -0.28062356 -0.20762363 0.44372517 -0.111170076 -0.3375278 -0.28556028 -0.8499662 -0.010817274 -0.23779853 -0.28975308 -0.15499799 0.33666843 -0.13039577 -0.34601292 -0.024633026 0.31798545 0.1480331 0.13073373 -0.2244115 0.06411552 -0.04560906 -0.077444896 0.14973557 0.2687312 0.0038586706 -0.41824818 0.15940635 -0.0093827825 -0.011637862 -0.13735713 -0.12798281 -0.478816 0.45528919 -0.14924543 0.39271083 -0.5350603 0.6012879 -0.4403479 0.19818632 0.14062476 0.001272681 0.5188993 0.15021934 0.09024102 -0.10762831 -0.5818991 0.12049121 -0.13853607 0.1548843 -0.45586878 0.8004169 0.043566532 -0.024047833 0.29369798 0.41859403 0.31835297 -0.13274783 0.68354195 0.33022183 0.060358234 -0.030555643 0.7637074 0.44117162 0.07092931 -0.5870508 0.16177012 -0.047440965
挺 -0.34567785 0.24348052 0.1932386 0.13235658 0.14806952 -0.54266596 0.26631078 0.8549694 -0.18805763 -0.31399855 -0.08601033 -0.4688849 -0.12913011 0.17321284 0.19595484 -0.1463985 0.09861449 -0.29201835 0.05872274 -0.59713274 0.31060264 0.2171755 0.29287013 -0.3182431 0.13738279 -0.035574067 -0.3284638 -0.29504246 -0.28616288 0.020491775 0.40540472 0.07163286 0.27750617 -0.3089955 -0.13758521 0.38961673 -0.10468581 -0.30444518 -0.28928503 -0.6807899 -0.03567739 -0.27343696 -0.24910742 -0.08216544 0.35102856 -0.08151821 -0.35533652 -0.08602952 0.33707067 0.16391301 0.12889957 -0.17419773 0.020191072 -0.044557136 -0.094523795 0.18989225 0.23794019 -0.037246745 -0.4273441 0.13801968 0.026728762 0.000350272 -0.14830025 -0.030042922 -0.42001268 0.38345227 -0.08720355 0.42928827 -0.4475869 0.5738335 -0.32370734 0.19293787 0.18042691 0.03337616 0.469645 0.13389489 0.103665106 -0.103919536 -0.4314629 0.14866394 -0.13126469 0.061708458 -0.4309362 0.6504748 0.00305887 -0.0893057 0.25774077 0.41319513 0.23764694 -0.10339167 0.5834628 0.28344312 0.09681318 -0.074316725 0.6172905 0.41898715 0.10283349 -0.4635051 0.072464645 -0.05225559
超级 -0.34787345 0.23390515 0.16015321 0.11312524 0.14103143 -0.5007656 0.24049081 0.8472929 -0.203994 -0.28120983 -0.086167194 -0.47873902 -0.07472671 0.16258514 0.17632052 -0.16828026 0.13583721 -0.28794453 0.08650415 -0.6038673 0.3031755 0.2116121 0.30196723 -0.33725333 0.1391802 -0.035634696 -0.30264091 -0.29937974 -0.25594956 0.022094041 0.3936772 0.089798205 0.26592728 -0.36823303 -0.12270424 0.39912003 -0.12690924 -0.33292606 -0.2964265 -0.66573876 -0.032286555 -0.25383815 -0.23742703 -0.101435736 0.36940464 -0.052252743 -0.35962918 -0.10252103 0.30584076 0.11325229 0.12049218 -0.16399498 0.02658698 -0.003565604 -0.069076695 0.17922443 0.21461882 -0.032709286 -0.43497673 0.16185075 0.037986074 -0.024097437 -0.12780331 -0.03219542 -0.4060843 0.37354222 -0.06844788 0.45171893 -0.4444991 0.59061176 -0.30856624 0.2240382 0.16719937 0.027226964 0.44799945 0.1138503 0.13543172 -0.1087204 -0.40277147 0.14667429 -0.15803145 0.05284704 -0.4628386 0.6441377 -0.009833239 -0.09317883 0.23743506 0.41305292 0.21679744 -0.06117697 0.5400535 0.24035762 0.11688015 -0.06581493 0.59173065 0.405396 0.12301636 -0.41671178 0.07252844 -0.03922984
包装 -0.3316348 0.24987838 0.17476836 0.13612683 0.1620044 -0.5727466 0.30229065 0.89180946 -0.23060058 -0.30671272 -0.07739232 -0.49093542 -0.13594475 0.16587323 0.20509072 -0.14313576 0.1145616 -0.27594745 0.047952935 -0.63830155 0.3337571 0.25710794 0.30525172 -0.34490463 0.13109109 -0.04265138 -0.33519018 -0.30527413 -0.28198922 0.01613637 0.44516054 0.065426454 0.31266397 -0.3321198 -0.13395563 0.4224696 -0.10247891 -0.3116338 -0.2849571 -0.7352247 -0.022230932 -0.29213992 -0.2780657 -0.074680746 0.36206338 -0.054316252 -0.38191202 -0.07946111 0.33279955 0.1416712 0.14478597 -0.20970215 0.025070228 -0.045279756 -0.0786909 0.20043683 0.25928783 -0.021337349 -0.42937693 0.13804814 -0.0072391266 -0.0116929775 -0.16778833 -0.044825424 -0.44345173 0.4265016 -0.10376809 0.44019142 -0.4762531 0.5950877 -0.3757322 0.19819029 0.195436 0.028632436 0.4669946 0.115789436 0.12797539 -0.10816097 -0.46747988 0.15144585 -0.14295036 0.08190392 -0.46134865 0.6832179 -0.008381976 -0.096699916 0.2520935 0.42381406 0.24638663 -0.10070343 0.58728564 0.29550803 0.09706511 -0.0722004 0.65849197 0.40598843 0.10544262 -0.4901024 0.107109316 -0.058330048
一次 -0.35411182 0.31053352 0.18166794 0.08929751 0.20605588 -0.64475626 0.31397343 0.9633798 -0.2636893 -0.32958382 -0.051905073 -0.5454857 -0.17727253 0.12576568 0.24726489 -0.15204197 0.10900972 -0.23901759 0.07353699 -0.6292743 0.35565254 0.23562552 0.27027494 -0.37392822 0.10150346 -0.07510798 -0.3360345 -0.34651414 -0.2820977 0.003352221 0.4924735 0.06867876 0.31793913 -0.27855006 -0.19754514 0.42870417 -0.07925361 -0.3085331 -0.26025766 -0.7923749 -0.00754357 -0.24710634 -0.28154424 -0.13583323 0.33184126 -0.13018441 -0.332604 -0.020036878 0.30163914 0.1367828 0.1361627 -0.21186134 0.07087611 -0.030865097 -0.053913057 0.15879275 0.25008312 -0.0066976016 -0.41492826 0.11774602 -0.029471494 0.011346945 -0.117306486 -0.11446543 -0.44283164 0.43369928 -0.113230385 0.38859078 -0.54236263 0.5713906 -0.3824908 0.214694 0.16007309 0.006632187 0.50136435 0.16900839 0.08119432 -0.08378512 -0.5316312 0.12764592 -0.12103201 0.112973385 -0.44352376 0.75638974 0.024910074 -0.010481593 0.25570592 0.3795998 0.29742286 -0.08836244 0.64793116 0.34464574 0.07857135 -0.058283955 0.7538515 0.40126678 0.06101257 -0.5431496 0.15664934 -0.049253065
真的 -0.36154565 0.27594626 0.18182623 0.122685365 0.16541834 -0.59159416 0.2880494 0.9062368 -0.22158593 -0.31690872 -0.08976502 -0.48088607 -0.14677082 0.16168101 0.22177237 -0.1370974 0.119891845 -0.27372652 0.055930007 -0.64535135 0.33910692 0.2455136 0.29894838 -0.3448742 0.14086424 -0.037544947 -0.36324316 -0.31840673 -0.2882815 0.030669373 0.44834402 0.08934797 0.29477903 -0.32506827 -0.14558406 0.40141058 -0.11828078 -0.30371508 -0.28300202 -0.7375179 -0.028557668 -0.27896407 -0.2601108 -0.089918576 0.36859092 -0.09404907 -0.36950126 -0.06961583 0.33414122 0.14558403 0.1260867 -0.19521703 0.030628696 -0.029511843 -0.088378005 0.1915196 0.25294784 -0.017160337 -0.43185934 0.15447228 0.015402492 -0.017779794 -0.14549977 -0.044734772 -0.42667252 0.4266547 -0.08510388 0.44528276 -0.48985213 0.59699106 -0.34704658 0.21545736 0.18442859 0.03483104 0.48875734 0.14450185 0.103229836 -0.09016903 -0.46334928 0.14124851 -0.13686287 0.08001293 -0.44456884 0.71567565 0.01953929 -0.07350079 0.27661315 0.43155953 0.25421295 -0.116044916 0.6289934 0.30677482 0.089728415 -0.07945436 0.6602108 0.41380143 0.1050139 -0.50043094 0.10317207 -0.029468121
订单 -0.39756036 0.38245457 0.20056817 0.10186918 0.2718099 -0.7338846 0.35082406 1.0956836 -0.31242406 -0.35098115 -0.031823862 -0.6053385 -0.2574477 0.07912875 0.270461 -0.18537684 0.13317351 -0.2216294 0.10124364 -0.66817755 0.3435097 0.29943785 0.28304768 -0.43507177 0.10639005 -0.11886476 -0.38143647 -0.46483806 -0.27020246 -0.00086927443 0.54379785 0.08493916 0.3874961 -0.2948359 -0.23895134 0.46793723 -0.10625203 -0.39493686 -0.2855829 -0.9186521 0.04303929 -0.22785994 -0.2924756 -0.20527053 0.3515694 -0.18896712 -0.37212026 0.056859624 0.3158403 0.09046047 0.14539528 -0.2024512 0.056657165 0.010657433 -0.09790585 0.11471139 0.2593111 0.028232777 -0.41133118 0.13494106 -0.013942495 0.044635613 -0.10534919 -0.17813113 -0.52776176 0.43583223 -0.17416364 0.37507042 -0.63591874 0.619543 -0.44674528 0.28558743 0.15329105 0.036228858 0.57731825 0.16473277 0.11741415 -0.097687274 -0.6842948 0.110827625 -0.1424179 0.19174741 -0.47555974 0.8391651 0.049249377 0.016299048 0.30235574 0.41771176 0.34703898 -0.104011655 0.7272175 0.38284618 0.003804572 -0.03927747 0.8794353 0.4802459 0.060845014 -0.63250244 0.1806242 -0.040276475
买 -0.36787087 0.3034457 0.1915009 0.119632855 0.1939574 -0.6576731 0.32426202 1.0201914 -0.24221212 -0.3522196 -0.0680337 -0.5490686 -0.18865675 0.1561044 0.24288245 -0.14173612 0.10907089 -0.27933216 0.075317785 -0.6677767 0.36815703 0.27235207 0.31096816 -0.3860995 0.12117882 -0.0646362 -0.35868773 -0.33921555 -0.29983917 0.013981859 0.504053 0.07101948 0.34377995 -0.3049239 -0.18870975 0.45488033 -0.09180864 -0.34122807 -0.28160843 -0.83187485 -0.023028588 -0.26800954 -0.30481055 -0.122513115 0.3662253 -0.09631203 -0.37258738 -0.061561096 0.3420824 0.13497937 0.1329932 -0.20075604 0.03950217 -0.04238696 -0.07149935 0.17197236 0.2818731 -0.00017751826 -0.4223358 0.15378872 -0.007395284 -0.006617427 -0.15898935 -0.09012865 -0.4903532 0.45041397 -0.13331008 0.42813098 -0.5379458 0.6115643 -0.4220002 0.20316577 0.1623571 0.028447181 0.5049311 0.15557197 0.098181054 -0.12272656 -0.5645438 0.15569158 -0.1303978 0.12788612 -0.45792785 0.78583103 0.037944887 -0.043558516 0.27900815 0.43670404 0.28272423 -0.12045548 0.67321634 0.32261714 0.082925506 -0.06891091 0.7599975 0.44313493 0.084447354 -0.55806756 0.14992602 -0.06980815
订 -0.38163266 0.33641618 0.1849649 0.124403246 0.2192718 -0.6658328 0.34762824 1.0416621 -0.2619171 -0.35170597 -0.04474365 -0.55714154 -0.19319236 0.13091497 0.23118842 -0.16799614 0.13301082 -0.24593908 0.07202415 -0.67948556 0.3679736 0.25708452 0.2990038 -0.3930965 0.13933605 -0.07951598 -0.36511278 -0.3825987 -0.2932672 -0.00034381993 0.5048199 0.090290256 0.35201594 -0.3201659 -0.19686273 0.45067248 -0.094679445 -0.36198685 -0.29065958 -0.8523732 -0.016810063 -0.2561709 -0.286441 -0.1559661 0.3680343 -0.14558478 -0.37307176 -0.0152367465 0.34039348 0.11673553 0.13787477 -0.21985477 0.04730716 -0.020109495 -0.07330604 0.14479828 0.26969564 -0.011952125 -0.42787728 0.14054172 0.0018482334 -0.00060034456 -0.12293332 -0.11320979 -0.51410806 0.45367444 -0.12824751 0.4333716 -0.5800922 0.6303755 -0.44190267 0.23478734 0.16125102 0.026019836 0.5325236 0.16364595 0.10077319 -0.11249672 -0.59493774 0.14161275 -0.13741265 0.14413536 -0.4808147 0.8014094 0.035473485 -0.015765872 0.2959993 0.40720427 0.30298337 -0.10531082 0.69744766 0.34227157 0.061161183 -0.054932605 0.7990907 0.44778118 0.078280635 -0.5749905 0.15692827 -0.055994835
: -0.3787686 0.4229118 0.19288783 0.031806365 0.32347816 -0.76577526 0.35265434 1.0766958 -0.3281563 -0.30572924 0.012462476 -0.64478236 -0.18816349 -0.026282743 0.24072969 -0.23073532 0.14543113 -0.15375444 0.103434496 -0.6341177 0.31861156 0.26988128 0.27408156 -0.45572954 0.07869872 -0.1314327 -0.31083933 -0.48171222 -0.2095986 -0.0012699291 0.5729485 0.08365371 0.3731769 -0.30761203 -0.30642614 0.47916076 -0.08347146 -0.4094685 -0.34172627 -0.9541373 0.022396408 -0.16569519 -0.263784 -0.3176369 0.30301 -0.26350257 -0.32416567 0.08610573 0.29425788 0.020841958 0.15183994 -0.26827002 0.061225872 0.063867174 -0.18300878 0.064368464 0.16317374 -0.0026440856 -0.40625948 0.1384933 0.06206445 0.086167805 -0.052515127 -0.2087491 -0.52709997 0.40813944 -0.15434645 0.3376423 -0.64682406 0.6077683 -0.49969673 0.35429117 0.1132573 0.09104181 0.5484107 0.20074828 0.08333735 -0.027776025 -0.7223166 0.07248088 -0.13291924 0.18577717 -0.54189444 0.8276704 0.030525623 0.09224238 0.32702067 0.31914833 0.36651218 -0.05382902 0.7637855 0.38139024 -0.08422461 -0.04567207 0.877286 0.45149714 0.03484675 -0.6164442 0.17277724 -0.03626818
里面 -0.43088606 0.3376596 0.22952235 0.13672778 0.23605338 -0.7592978 0.34011328 1.104451 -0.2614377 -0.4165679 -0.084715635 -0.58031404 -0.22793038 0.19246158 0.2861768 -0.14910492 0.12437991 -0.317851 0.06677798 -0.75951 0.40341634 0.3126297 0.34825304 -0.40895045 0.14773157 -0.062140286 -0.44707698 -0.38844982 -0.33890003 0.031519517 0.559495 0.09562352 0.36794 -0.32807407 -0.21045259 0.5153731 -0.13341281 -0.35202038 -0.32590747 -0.92012197 -0.022404479 -0.30370507 -0.3579276 -0.12375919 0.42565742 -0.12693469 -0.4203305 -0.07580348 0.40225247 0.18915623 0.15240368 -0.2514652 0.014149294 -0.03130529 -0.080277644 0.2386969 0.30649316 -0.020778852 -0.48478287 0.171235 -0.022470603 -0.008080657 -0.18331592 -0.09692781 -0.5421716 0.5127894 -0.14406104 0.45323387 -0.56841123 0.6981966 -0.48359728 0.2383151 0.1854897 0.020575322 0.5737937 0.19941416 0.10665025 -0.13299906 -0.61656654 0.14575313 -0.12547919 0.12835455 -0.52782154 0.881601 0.02832999 -0.058768887 0.3036051 0.5168727 0.32585752 -0.14650753 0.7388092 0.37564203 0.08924816 -0.06647398 0.82262313 0.48499376 0.09909279 -0.63501865 0.15302318 -0.07231332
不能 -0.38707483 0.3173334 0.19020182 0.10990897 0.20446953 -0.6685067 0.322391 1.0115557 -0.23627718 -0.3504075 -0.05376649 -0.5442362 -0.17093766 0.14698206 0.2411498 -0.15478423 0.116443664 -0.2606199 0.08211768 -0.66350126 0.3558481 0.24766609 0.29174852 -0.39239514 0.12695335 -0.06700256 -0.37223262 -0.3583457 -0.28206703 -0.011919308 0.48348165 0.08525426 0.32337898 -0.28716183 -0.180921 0.44119507 -0.10631775 -0.34244472 -0.28066522 -0.82455796 -0.00941201 -0.265584 -0.294819 -0.15160435 0.359225 -0.1311714 -0.35653272 -0.041966036 0.3241663 0.13864085 0.12156216 -0.1961616 0.043741263 -0.020086585 -0.061742704 0.17004873 0.2671912 0.00051940087 -0.4302345 0.15622072 0.0025659006 -0.010749875 -0.13456768 -0.109361455 -0.47615606 0.4501704 -0.13449472 0.40402105 -0.54103047 0.6212399 -0.399905 0.21337225 0.17728263 0.023591762 0.506258 0.15332204 0.105865404 -0.12153146 -0.56088823 0.15873708 -0.14257295 0.11536297 -0.47059986 0.771763 0.029524686 -0.034855407 0.28702062 0.42478633 0.30580834 -0.124706164 0.65973204 0.32212064 0.08815456 -0.055021808 0.7447454 0.42688167 0.08531114 -0.55882144 0.13526553 -0.041684296
下次 -0.3452727 0.2740303 0.17692511 0.099941336 0.15773268 -0.573575 0.26452973 0.90149766 -0.21501178 -0.29392967 -0.07449791 -0.4813072 -0.17284517 0.15932316 0.22207661 -0.1386796 0.09314762 -0.24158053 0.06383534 -0.5835905 0.3147116 0.22126667 0.27144554 -0.3252457 0.11676556 -0.06012098 -0.32215568 -0.3236541 -0.256755 0.0143010225 0.43625805 0.06430553 0.28751704 -0.29583153 -0.15208213 0.3764289 -0.08402899 -0.2820653 -0.25731608 -0.7146042 -0.013395823 -0.24552567 -0.27060065 -0.11391549 0.31450424 -0.098353885 -0.3476988 -0.0430745 0.32367423 0.13547151 0.102071814 -0.1617768 0.056874175 -0.04482877 -0.057614136 0.1809623 0.25175294 -0.012736089 -0.376564 0.1307213 -0.008092364 -0.005751738 -0.13869521 -0.07313176 -0.4261791 0.37907675 -0.09670663 0.40042683 -0.4750818 0.5627204 -0.34398776 0.1768491 0.13868965 0.017593853 0.46720475 0.121860676 0.11426224 -0.08825234 -0.49072173 0.15358977 -0.12323325 0.077422656 -0.41999152 0.69565564 0.012326381 -0.05415523 0.24821255 0.3956954 0.25731644 -0.10585617 0.57913774 0.2874116 0.0911058 -0.060385175 0.6558698 0.3989882 0.08411221 -0.4698687 0.1211761 -0.034515955
晚 -0.33311337 0.3204663 0.16713627 0.108563714 0.2186454 -0.5616657 0.31093037 0.9042146 -0.21409185 -0.26630464 0.00068849634 -0.5029795 -0.1553991 0.09666903 0.18872039 -0.14572193 0.13787507 -0.18609215 0.05942781 -0.5755152 0.25916982 0.19306007 0.2510547 -0.33931473 0.10619408 -0.05652312 -0.30064887 -0.3780922 -0.2131268 0.004221462 0.45076257 0.08612261 0.30957034 -0.28652272 -0.19105068 0.35394338 -0.09296979 -0.32298708 -0.2698184 -0.7176092 -0.00580638 -0.20075737 -0.22716063 -0.17406425 0.30248788 -0.17056456 -0.28591046 0.017714417 0.27279675 0.090587415 0.09704414 -0.17672628 0.04398065 0.045932528 -0.091904 0.09428744 0.19806527 -0.016007096 -0.37195045 0.1140919 0.03749092 -0.008571278 -0.07073992 -0.07399217 -0.42726734 0.35939968 -0.10716143 0.37005574 -0.5146095 0.57470113 -0.34306008 0.23210342 0.14147301 0.010140814 0.47191593 0.131355 0.08600845 -0.07087033 -0.5236407 0.14389107 -0.14635028 0.09481508 -0.4100527 0.6795457 0.011673284 -0.0011704962 0.2597971 0.35760394 0.26275834 -0.088748254 0.6144037 0.27343068 0.044047743 -0.05307749 0.69801396 0.3988278 0.0631399 -0.47242224 0.11067679 -0.0032432904
煎饼 -0.38112935 0.31914356 0.21100135 0.12637629 0.2107906 -0.6692116 0.31704748 0.9852875 -0.23146468 -0.37163064 -0.06607076 -0.53315526 -0.18227707 0.18038955 0.23709464 -0.12037445 0.11628937 -0.2613847 0.051969707 -0.6824559 0.33985558 0.2704354 0.301939 -0.3656954 0.13098903 -0.04208092 -0.39272588 -0.36137256 -0.30543116 0.031884935 0.5029875 0.07514117 0.33791846 -0.3170898 -0.1670677 0.4605545 -0.11856024 -0.31583637 -0.27805644 -0.817067 -0.023589065 -0.26919562 -0.32293686 -0.12384551 0.38795546 -0.11101036 -0.3642375 -0.05534764 0.35927966 0.14705795 0.14972304 -0.22341108 0.022980323 -0.021297468 -0.09045082 0.2115487 0.2488385 -0.020336006 -0.42809963 0.15510602 0.0071463995 -0.017353334 -0.14709252 -0.051689968 -0.46791273 0.45206198 -0.110868976 0.41928077 -0.5243048 0.6344433 -0.40774146 0.22028515 0.18557917 0.008612006 0.5084646 0.1767314 0.089861244 -0.12246999 -0.5306764 0.13690154 -0.12967956 0.10086446 -0.4747366 0.77325624 0.025556063 -0.05457061 0.29276147 0.44586033 0.29322565 -0.12118073 0.6617522 0.3401237 0.09798833 -0.057286564 0.7390052 0.4314928 0.094027415 -0.5543065 0.1368431 -0.056735594
员 -0.40474692 0.27000162 0.17127281 0.07567244 0.17924863 -0.5839274 0.29537243 0.94531375 -0.15877333 -0.24589844 -0.11632183 -0.5927772 -0.08849927 0.15568966 0.19523577 -0.20070723 0.06231953 -0.3516257 0.15952656 -0.65369 0.37227085 0.2798595 0.36330962 -0.4147273 0.13376744 -0.0932525 -0.27248946 -0.40289286 -0.2787754 -0.0046180473 0.46489242 0.08624074 0.3592771 -0.32578227 -0.19007105 0.4452993 -0.15998796 -0.4198404 -0.33212498 -0.7340357 0.02453303 -0.37273052 -0.21132722 -0.17374253 0.33323765 -0.08817875 -0.3829782 -0.05897699 0.3306328 0.14424653 0.1571851 -0.17688794 0.089439504 0.008379858 -0.09797246 0.194478 0.3179017 -0.026326664 -0.5355604 0.14186154 0.07720564 0.036785986 -0.1786114 -0.057212606 -0.41851136 0.40101758 -0.09629369 0.44955078 -0.58459455 0.60517967 -0.35106122 0.22970127 0.2008985 0.05609229 0.5712074 0.108663216 0.15378809 -0.11351414 -0.49693793 0.21322417 -0.19665368 0.043678313 -0.5473535 0.7612819 0.004382449 -0.099837735 0.28357193 0.44484517 0.26331845 -0.07718536 0.66097754 0.3000754 0.0750129 -0.08711625 0.68431354 0.50918835 0.093240045 -0.49234632 0.10068803 -0.060864836
第一次 -0.3088107 0.27278033 0.16314587 0.09804451 0.1830755 -0.56716263 0.27772906 0.88533217 -0.22964345 -0.30215505 -0.060222857 -0.49513036 -0.1526158 0.13926437 0.20775576 -0.13805301 0.09663165 -0.21819775 0.07626128 -0.5686446 0.32128972 0.20940356 0.2662295 -0.33994246 0.11055353 -0.059419245 -0.2997904 -0.31048104 -0.26272666 0.003916014 0.43187585 0.06815761 0.28485 -0.25853008 -0.15825374 0.38607234 -0.06662147 -0.29716814 -0.2506387 -0.70774674 -0.018058311 -0.2184512 -0.26160192 -0.13573624 0.29457378 -0.10241218 -0.31236053 -0.03275553 0.29108858 0.127653 0.11934506 -0.19253208 0.06214227 -0.03640999 -0.045463875 0.14427905 0.23405111 -0.0047289706 -0.36768615 0.11827682 -0.012110573 -0.005657858 -0.117809236 -0.09760757 -0.42314848 0.37394887 -0.111597836 0.35945824 -0.48209396 0.53652465 -0.3456581 0.18384084 0.1415284 0.008994402 0.4358798 0.13508065 0.09610643 -0.072854534 -0.47687596 0.12795545 -0.109082215 0.1022519 -0.41784936 0.67896926 0.009282306 -0.04083227 0.24532762 0.35576004 0.2546426 -0.08589906 0.58015186 0.29232305 0.06641201 -0.044664424 0.6592371 0.37279862 0.0579312 -0.48515776 0.12723105 -0.04649067
师傅 -0.3537108 0.2073292 0.16808072 0.08388639 0.14013755 -0.48635304 0.26968992 0.8510638 -0.1511791 -0.22230312 -0.09722211 -0.49323496 -0.06282436 0.15786228 0.1750158 -0.20633909 0.08256463 -0.3118423 0.116191804 -0.595809 0.3437868 0.22257268 0.3181566 -0.3483188 0.14070946 -0.059131574 -0.26950508 -0.33378246 -0.26522657 0.0044881636 0.37270552 0.06743891 0.28160837 -0.34112254 -0.12286462 0.37768248 -0.11294132 -0.34654897 -0.3133774 -0.6282068 -0.011766949 -0.32380828 -0.21782602 -0.090646304 0.3264315 -0.042600576 -0.35009885 -0.08261357 0.32459503 0.15980193 0.13658877 -0.15254849 0.057045244 -0.012263246 -0.096045606 0.1924226 0.27476424 -0.029206295 -0.45544684 0.132788 0.052002743 0.0028159604 -0.16482474 -0.03705222 -0.39671057 0.3716831 -0.07873459 0.45429608 -0.49659815 0.5619049 -0.31154266 0.22522771 0.20439339 0.04588606 0.4771079 0.06412012 0.1530302 -0.08281836 -0.44078994 0.2046465 -0.16862428 0.040018816 -0.46813774 0.6405037 -0.01737789 -0.09275068 0.22051604 0.40667397 0.21733432 -0.061177224 0.57530916 0.24483384 0.08718753 -0.08550636 0.59244865 0.46313238 0.12218887 -0.40559667 0.056232825 -0.065725304
菜品 -0.31697965 0.23386878 0.17753759 0.11281907 0.16453665 -0.508192 0.27605802 0.8328733 -0.1886007 -0.2793967 -0.07378415 -0.4548927 -0.10731054 0.15938169 0.18138908 -0.14965694 0.09291325 -0.24787806 0.07368729 -0.56471884 0.31549168 0.19773303 0.262597 -0.3110393 0.12502776 -0.062194236 -0.28630793 -0.30260977 -0.25808918 0.009759373 0.3852048 0.07569281 0.27027407 -0.30360433 -0.12744983 0.37728795 -0.083370745 -0.287473 -0.27239528 -0.6541924 -0.018408567 -0.2540317 -0.23323679 -0.09400904 0.32820854 -0.08482154 -0.32848477 -0.05062004 0.3106902 0.12653117 0.12157638 -0.15194651 0.037552826 -0.013792156 -0.085852034 0.150281 0.21949138 -0.028031414 -0.39718008 0.12946433 0.010784014 0.0055791344 -0.13163042 -0.055841018 -0.4049786 0.35945338 -0.09105151 0.40385798 -0.4538608 0.5423867 -0.31721896 0.2092415 0.17044856 0.010532592 0.4400592 0.10957028 0.12199371 -0.1022878 -0.43344346 0.14851613 -0.13081114 0.06393607 -0.4186006 0.62622327 0.008222439 -0.07615846 0.24075653 0.38419673 0.23135354 -0.07699354 0.5417366 0.26817378 0.06970833 -0.056254458 0.59659666 0.39101747 0.08260247 -0.43413952 0.094575815 -0.04263127
12 -0.3461398 0.37514633 0.1757369 0.0326877 0.29195186 -0.6499741 0.3264556 0.95413464 -0.27548385 -0.2708596 0.0070580803 -0.58429474 -0.17975228 0.011759547 0.19532472 -0.19532354 0.1316219 -0.13532776 0.07986216 -0.57034713 0.28408915 0.23787765 0.20893262 -0.41550156 0.085072 -0.10315923 -0.2854793 -0.42197093 -0.22424978 -0.0014962375 0.5016507 0.07136973 0.31770268 -0.281226 -0.26169634 0.40570208 -0.090951785 -0.357236 -0.27126884 -0.8376507 0.00045714056 -0.13939647 -0.22402419 -0.25979093 0.26390857 -0.25970146 -0.27645615 0.06849829 0.27318028 0.03471376 0.14204088 -0.2454141 0.07779154 0.060265996 -0.14485049 0.076752484 0.14686704 0.011572747 -0.3761125 0.12226979 0.0298198 0.053092085 -0.023977714 -0.16808894 -0.47453967 0.34559897 -0.15882008 0.3132127 -0.549904 0.52805 -0.41345203 0.29508686 0.09431162 0.052571952 0.49645403 0.17207313 0.077465385 -0.019934807 -0.61268556 0.06667138 -0.13081513 0.17404604 -0.448768 0.7130364 0.030963989 0.07865533 0.30322796 0.2906168 0.3269407 -0.059218075 0.66287005 0.3372966 -0.062388107 -0.057181593 0.7544535 0.41479453 0.027973358 -0.5258741 0.1720125 -0.0054555587
今天 -0.34300154 0.2857113 0.18306008 0.11683084 0.18929738 -0.5895402 0.2825543 0.896365 -0.23029202 -0.29413685 -0.05938336 -0.50501144 -0.15177363 0.14531481 0.2184199 -0.15539059 0.12304139 -0.23386554 0.060068905 -0.6053947 0.30935287 0.21445975 0.27827883 -0.33967212 0.111401536 -0.056655068 -0.32643798 -0.33085978 -0.26866144 0.008800327 0.44467556 0.08285067 0.29783705 -0.29782283 -0.16553839 0.3864711 -0.088275395 -0.31887752 -0.27446094 -0.72357374 -0.01994984 -0.24557777 -0.26376265 -0.13765517 0.33916375 -0.1281151 -0.33379033 -0.045851417 0.31819513 0.11450201 0.115316 -0.18355075 0.042541467 -0.0019787059 -0.08613607 0.1441626 0.22726594 -0.022237742 -0.3831774 0.14122774 0.011562458 -0.008446858 -0.118042134 -0.07306703 -0.4405488 0.40447205 -0.107441925 0.3906398 -0.5053807 0.57840246 -0.36111864 0.21326289 0.16304947 0.013176956 0.46391377 0.14324872 0.101024255 -0.08746864 -0.48921117 0.13304906 -0.14108004 0.08411315 -0.41710365 0.69783896 0.026116144 -0.03743433 0.25242177 0.38626063 0.2738153 -0.1053322 0.6034909 0.29189086 0.07476435 -0.06579795 0.67054844 0.39199075 0.07519128 -0.49162543 0.11740839 -0.037606742
定 -0.35498956 0.3281641 0.19017905 0.11468745 0.21571614 -0.6446262 0.31294435 0.9794997 -0.25799876 -0.32422137 -0.051986903 -0.5242986 -0.17346272 0.12124548 0.23432712 -0.15557075 0.109380454 -0.23301281 0.071964554 -0.64345247 0.33574232 0.23968355 0.26629582 -0.37570408 0.11342137 -0.059049144 -0.34682623 -0.35226008 -0.2749095 -0.0012787151 0.49135616 0.09556844 0.33114493 -0.28815165 -0.18248358 0.4317266 -0.09937369 -0.32964453 -0.27904305 -0.80619264 -0.0056777485 -0.22921537 -0.2828509 -0.16139455 0.32995507 -0.14985964 -0.35258844 -0.019195925 0.32629967 0.10930857 0.117956564 -0.20916988 0.052822087 -0.011555345 -0.07133221 0.15076742 0.23303221 0.005249249 -0.39498916 0.13858104 0.014202206 0.008371718 -0.11715356 -0.10089198 -0.4566248 0.4265945 -0.111334905 0.38484207 -0.5317576 0.58620954 -0.41600698 0.22092742 0.14511232 0.016610043 0.50347346 0.15444252 0.09117362 -0.09437701 -0.54356956 0.13928597 -0.11887554 0.12682956 -0.45331988 0.76001906 0.030806296 -0.017989911 0.28902474 0.39215252 0.2978037 -0.116516754 0.6564087 0.33732513 0.04458346 -0.05649567 0.7459969 0.40833738 0.06685767 -0.54417926 0.14715852 -0.04045442
辣 -0.32083195 0.25366527 0.18086164 0.099735774 0.17510119 -0.5793788 0.26737836 0.85313046 -0.19594778 -0.31209496 -0.059416663 -0.45224893 -0.15007302 0.1476726 0.22107844 -0.10585449 0.100185186 -0.2407484 0.07017676 -0.56581163 0.3128157 0.2272063 0.24799624 -0.32508355 0.10438522 -0.055324495 -0.35359097 -0.28996897 -0.2550322 0.0021067774 0.4281033 0.073327065 0.27183753 -0.23938417 -0.14884804 0.37860203 -0.08911668 -0.26680318 -0.2208415 -0.7199884 -0.013504035 -0.23369682 -0.26606557 -0.07714363 0.3287222 -0.07078296 -0.3152724 -0.0408911 0.30159023 0.14364722 0.10873786 -0.19847238 0.018569525 -0.056937765 -0.054663107 0.17744005 0.24469613 -0.017853335 -0.37678653 0.14758304 -0.0092716925 -0.02161842 -0.13254975 -0.07740971 -0.39199254 0.39103004 -0.110309534 0.35065094 -0.42212486 0.5372974 -0.3730936 0.15290113 0.13385075 0.020604812 0.41995534 0.124708675 0.08589575 -0.12227696 -0.47094452 0.101006456 -0.11439039 0.12401286 -0.40845257 0.6856714 0.048222534 -0.064176135 0.2508992 0.38871694 0.26790023 -0.120844245 0.56937075 0.2778317 0.08382086 -0.03364823 0.63280255 0.36408493 0.06308024 -0.5008904 0.12183813 -0.054372333
